0.145735 0.0808799 0.173034 0.0214368 -0.182295 -0.201731 0.240278 -0.237452 -0.275543 0.126464 0.228413 0.254851 0.226783 -0.0825817 -0.113831 -0.00891995 0.141528 -0.269803 0.147363 0.127609 -0.0616557 -0.153727 -0.0718929 0.146366 -0.0665158 -0.132152 0.0696628 -0.0875662 -0.126351 -0.180387 -0.129109 -0.118734 0.0458537 0.0291143 -0.0171164 0.0367899 -0.282908 -0.196915 -0.145506 -0.15782 -0.0823702 0.0589478 -0.2442 0.11438 0.177375 -0.193887 -0.166474 -0.224995 -0.218792 -0.18388 0.0973084 0.257819 -0.0878159 0.0487942 -0.160933 0.0297414 0.0673349 0.157767 0.026309 -0.0662992 -0.0143696 -0.252233 -0.280903 0.228617 -0.157313 0.183602 0.228 0.214026 0.207106 0.191288 0.244752 -0.232358 -0.273477 0.029381 0.267539 -0.115242 0.101153 0.0102897 0.142833 -0.270101 -0.0141851 0.138831 0.183134 -0.250569 0.227165 -0.229144 0.0965711 -0.281538 -0.245586 0.0897387 0.252242 -0.0918555 -0.175496 -0.103843 0.112945 -0.251912 -0.112081 0.0696841 -0.255907 0.177916 -0.0392354 0.0720858 0.0256427 0.207788 -0.0198697 0.184504 -0.0421826 -0.108991 0.123129 0.254161 -0.0145 0.151399 -0.000990361 -0.177645 0.0495567 0.0630132 -0.0504068 -0.0451899 -0.283096 -0.111966 -0.276276 0.153091 0.281688 -0.0667266 0.0313139 0.125603 -0.245172 0.0642539 -0.271939 0.151333 0.0632975 -0.267875 0.206444 0.1689 -0.0684185 0.0417931 0.268536 0.0600982 -0.060177 0.251699 -0.0239325 0.0568978 -0.26652 0.0369139 0.00345611 -0.0296076 -0.0968589 0.236094 -0.00744141 -0.19361 -0.078278 0.17771 -0.150147 -0.129321 0.256328 -0.21679 -0.190515 0.188863 -0.261524 0.211571 -0.16405 0.133907 0.0726298 0.0838856 -0.157764 0.0513371 0.231477 -0.244262 0.0386412 0.1584 -0.00109275 -0.00305285 0.197724 -0.219112 -0.0346905 0.0650328 0.0706744 -0.000587904 -0.171767 -0.180045 0.224769 0.274413 -0.23553 -0.224693 0.0896948 -0.120251 -0.0560711 0.0736893 -0.152943 0.132623 -0.248911 0.123445 0.0699872 -0.186464 0.185833 0.213758 -0.115452 0.27788 0.163784 -0.0665432 0.10586 0.209261 -0.196652 -0.121612 0.107474 -0.153117 0.0702407 0.0460028 -0.0676579 -0.262864 -0.226351 -0.198585 0.153702 0.0492824 -0.0506733 -0.181806 0.266166 -0.141482 -0.195932 -0.183381 0.0454833 0.17038 0.230582 -0.073764 0.270482 0.255221 0.242473 -0.277794 0.280093 0.127233 0.120134 0.116629 -0.248378 0.166686 0.192005 -0.269716 0.129779 0.232229 0.207489 -0.272206 -0.187308 -0.175163 -0.155072 0.125422 -0.264899 -0.157188 0.284214 -0.122648 0.0336022 0.0479315 -0.138473 -0.0232456 0.191408 -0.163992 0.241643 0.0702736 -0.178738 0.179439 -0.00891744 0.0128857 -0.11801 0.091859 0.141942 -0.12063 0.0279285 -0.271101 -0.208945 0.0628859 -0.234737 0.0234166 -0.104547 -0.176931 -0.0181646 0.00709945 -0.114443 0.239686 -9.52714e-05 0.256807 0.0586608 0.135724 -0.00608637 -0.131079 -0.108998 -0.102026 0.142312 0.196789 0.146429 -0.186133 -0.13929 0.235315 -0.129713 0.0515522 -0.135945 0.0470914 -0.0800745 -0.200161 -0.017136 -0.233527 -0.0847753 -0.00662724 -0.226318 0.185361 -0.249853 -0.244481 -0.0843286 0.13855 -0.10985 0.00976061 0.119727 -0.20012 0.248868 0.238444 -0.0216686 -0.126558 0.260334 0.254371 0.10285 -0.0817794 0.0132165 0.143094 0.146534 -0.0385365 0.0132868 0.252283 0.203416 -0.272673 -0.0191637 0.00850144 0.0568114 -0.254813 0.0999281 0.268246 0.169938 -0.0811919 0.00614209 -0.212025 0.0950976 -0.0574939 -0.22214 -0.198026 -0.129803 -0.0245638 0.106367 -0.212867 -0.270372 0.255478 -0.226583 0.104963 -0.0277101 -0.154702 -0.0124309 0.202521 0.124634 -0.171623 0.0946516 -0.242501 -0.177076 0.177102 -0.231424 -0.1444 0.0311089 -0.00742221 -0.186165 0.059525 0.269071 -0.206703 0.124608 -0.021414 -0.263788 0.0147346 -0.00989098 -0.152568 -0.117623 0.124637 0.209352 0.109597 0.231553 0.11744 0.208925 0.282337 -0.2537 -0.216893 0.156259 0.224789 0.15165 0.245326 0.0105372 0.187299 0.273009 -0.146641 -0.073724 -0.0373445 0.0244656 -0.039388 -0.0191205 0.0296337 -0.100143 -0.275802 0.149754 -0.0511939 0.0864456 -0.0814008 -0.00605125 0.126591 0.187796 -0.138877 -0.0494892 0.247023 -0.200277 -0.0128495 0.0574313 -0.147266 0.111291 -0.107456 -0.256325 0.195745 -0.00760941 0.151479 0.259925 0.199773 -0.259821 -0.100437 0.189412 -0.0839723 -0.18596 -0.116042 -0.0113359 0.168776 0.133917 0.274891 -0.250382 0.00921398 -0.168331 0.200745 -0.13786 -0.191536 0.155483 -0.265501 -0.10875 -0.125204 -0.139073 0.243997 0.135647 0.263534 -0.131238 -0.0767732 0.152707 0.260285 0.142566 0.143547 -0.270716 0.238701 -0.124439 0.265763 -0.211686 -0.112332 -0.127015 -0.0524071 0.27765 0.113706 -0.094859 0.306423 0.25665 -0.0739234 0.188861 -0.19223 -0.261393 0.185357 0.0755817 -0.0353004 -0.125104 0.171995 0.0239032 0.167693 -0.227939 0.180555 -0.00631866 0.0222988 -0.189077 0.169637 0.15172 0.0574185 -0.0903229 0.224589 0.270321 0.167101 -0.000849187 -0.0647141 0.0590331 -0.0753523 -0.230829 0.158928 -0.200299 0.181718 0.13136 -0.0725403 0.0376624 0.111944 -0.00232822 -0.178888 -0.12974 -0.0191321 0.127149 0.102543 0.214331 0.0867682 -0.244761 0.0573071 0.00679766 -0.109871 0.155933 -0.202164 -0.153588 0.137495 0.139346 0.21485 -0.200023 0.247931 0.18201 0.0855707 0.0890502 0.218458 -0.135353 0.0174656 0.11755 -0.105689 -0.133225 -0.247504 -0.172367 0.114706 0.0963026 0.148662 -0.179321 0.241211 -0.263792 -0.272574 -0.00518331 0.0591824 -0.0705167 -0.120668 -0.19648 0.148951 -0.0412494 -0.165877 -0.190352 0.132636 -0.0726841 -0.142447 -0.113451 -0.0903599 -0.068176 0.0124498 -0.127309 0.197766 0.120004 0.0448412 -0.128528 -0.104823 0.257355 -0.242069 -0.0268894 0.201304 0.17399 0.158796 -0.103718 -0.102285 0.197864 0.22531 0.164909 0.189323 0.247345 0.111054 -0.204504 0.175513 0.0716822 -0.139257 -0.0427946 0.0741434 0.237935 0.0411686 -0.191871 0.0116803 0.167325 -0.0154445 -0.00880826 -0.0102687 0.0249327 0.262339 -0.127814 0.262278 -0.204659 0.0394558 -0.225307 0.274229 0.281595 0.0169892 -0.167801 0.277783 -0.0810167 0.214254 -0.141255 0.0280111 0.0171707 0.176959 -0.183485 0.183594 0.298436 -0.254733 0.115315 0.0184932 -0.0667558 0.17611 0.114459 -0.074483 0.231786 -0.0607734 -0.220326 0.199327 0.152378 -0.246796 0.00774752 -0.00895704 0.141011 -0.22197 -0.138078 -0.0886662 -0.0441107 0.107426 -0.0316683 0.0564629 -0.142178 0.134578 -0.146804 0.0874907 0.0709517 0.160119 -0.285876 0.0714088 -0.215602 0.0467801 -0.150783 -0.22242 -0.272239 0.243659 -0.279511 0.280942 0.249892 0.0192886 -0.26142 -0.182642 0.186222 -0.062014 -0.192142 -0.247913 0.0460663 -0.0107313 -0.120508 -0.092928 0.227611 0.247589 0.259092 0.252727 0.0648402 -0.138595 -0.158357 -0.161062 0.142214 -0.0893349 0.204264 0.115532 0.0879316 0.0753717 -0.0694541 0.152619 -0.0582965 -0.163325 -0.129219 -0.154776 -0.0887588 0.147229 0.208867 0.0356483 0.14669 -0.257831 -0.118018 -0.0738398 0.15828 0.175309 0.19251 -0.0867174 0.205572 0.111828 0.234955 -0.135447 0.0680829 0.255993 0.244541 0.0453972 -0.030289 0.173722 -0.0901937 -0.0518715 0.127522 -0.0579502 -0.0448073 -0.00175058 -0.208194 -0.00962648 0.0396288 0.165961 0.226929 -0.0125602 0.252169 0.0163902 -0.251669 -0.260988 -0.206777 0.134548 -0.190312 0.0925529 0.109214 -0.0748787 0.229874 0.138173 -0.0610924 0.153006 0.0378396 0.0244659 -0.154379 0.214219 -0.0192098 -0.138191 0.0624009 0.220347 0.20954 0.131878 -0.151879 -0.0929758 -0.231548 -0.101823 0.149949 0.251178 0.258638 0.0540389 0.0800476 -0.113831 -0.0717544 0.256115 0.28075 -0.0517646 0.169708 0.240861 0.231376 0.060781 0.171292 0.188845 -0.205608 0.0962695 -0.0372741 -0.218155 -0.0526093 -0.196679 0.166609 0.128779 0.180446 -0.0491356 -0.173863 0.166462 -0.197852 -0.280335 0.183999 -0.217954 -0.144307 -0.126318 0.132869 -0.0196656 0.0475624 0.0961135 -0.232998 -0.222232 0.055792 0.183556 -0.221071 0.116818 
0.169994 0.261964 -0.275508 0.19245 0.240569 -0.0135836 -0.225242 -0.184434 0.00539553 0.00882402 -0.125001 0.22193 -0.276532 0.269267 -0.244789 0.01357 -0.00770843 -0.171522 -0.11513 -0.270597 0.0915217 0.20945 0.140005 0.221855 -0.0949791 0.208911 0.211325 -0.146149 -0.26367 -0.0839794 -0.166084 -0.227175 0.139096 0.0524122 -0.206801 0.206479 0.246451 0.143925 0.117686 0.120192 0.251825 0.21232 0.0655459 -0.269717 0.20952 0.0836014 0.207398 0.000196011 -0.151151 0.120985 -0.0223111 0.064392 -0.0308186 -0.151032 0.0417106 -0.0612081 0.0421234 0.0841112 0.0475752 0.189781 -0.123619 -0.0283524 0.0427343 0.271285 -0.163284 -0.0671507 -0.278691 0.182133 0.10094 0.0604149 -0.269245 -0.182706 0.155487 0.223368 -0.192643 -0.0152139 -0.215836 0.036817 0.105246 0.225371 -0.132152 0.0867683 0.19345 0.161147 -0.00405759 -0.0139628 -0.125841 -0.175557 -0.188446 -0.240816 0.0750472 0.0151892 0.207152 -0.0489738 -0.181276 0.0660395 -0.186781 0.284246 -0.199265 0.294375 0.0181031 -0.0121708 0.194725 -0.137735 0.191694 0.189604 0.10805 -0.22767 -0.0991306 0.0557978 -0.21592 -0.214257 -0.083012 -0.125322 -0.220161 -0.0164102 -0.200913 -0.277522 0.212575 0.182653 -0.257321 -0.0408593 -0.264812 0.0544564 0.282974 -0.2282 0.136851 -0.0832458 -0.114068 0.282628 -0.114186 -0.214213 0.133171 0.272553 0.15903 0.120143 0.0696455 0.0111657 0.0746168 -0.196509 0.230695 -0.275626 0.00704556 0.222434 -0.20558 -0.259519 0.0679305 -0.234619 -0.289932 0.109647 0.0230753 0.272838 -0.11088 -0.0577581 -0.28735 0.132473 -0.24584 -0.286686 -0.156141 -0.147813 0.183607 0.206927 0.193767 0.240223 -0.251735 0.0223658 0.151572 0.0276353 0.0145175 0.149613 0.246841 -0.142692 -0.141734 -0.225386 -0.0804717 0.0752047 0.137168 0.0933172 -0.200372 -0.116706 -0.129373 -0.255187 -0.157143 0.173594 0.241808 0.123816 0.0936813 -0.105872 0.172899 0.209748 -0.172499 -0.111599 -0.204472 -0.0663345 -0.208399 -0.205307 -0.192188 -0.282339 0.229508 0.237779 -0.218398 0.227633 0.030076 -0.14724 -0.188949 0.0535275 0.0636833 0.244438 0.0994935 0.109195 0.294428 -0.239171 -0.0616541 0.201005 0.091549 -0.185483 -0.225917 -0.136926 0.11755 -0.0527709 0.000826981 -0.102431 0.280972 0.0141883 0.186095 0.100052 -0.126983 0.0279219 0.145674 0.0389201 -0.274972 0.0920073 0.107861 0.230273 -0.15285 -0.054719 0.118631 0.0467775 0.17391 -0.163226 -0.0706494 0.162648 0.024002 -0.178839 0.0562068 0.127651 -0.182435 0.107942 -0.00490522 -0.0948532 0.102799 0.00646642 0.270736 -0.0176243 -0.186765 0.00389334 -0.0508648 -0.0273072 -0.198052 0.209091 0.291127 0.302956 -0.21705 -0.204521 -0.140027 -0.0697616 0.0833942 -0.10178 0.0905707 0.0593402 -0.00356375 -0.206679 0.141047 -0.278295 0.213884 -0.0046481 -0.222363 -0.186334 -0.259724 -0.1845 0.252639 -0.0366796 0.0550823 -0.184788 0.164434 0.0102504 -0.134561 -0.249872 -0.170359 -0.216258 0.173207 0.0794747 0.299913 0.223345 0.294912 -0.12078 0.143547 0.0475556 -0.0133071 0.115767 0.16217 0.0845267 0.0434016 -0.140236 -0.262007 0.183165 0.246006 -0.247266 -0.0900408 -0.00261186 -0.124329 -0.0132039 0.148754 -0.202002 0.123949 0.309221 0.125911 -0.163834 -0.0279414 0.146216 0.264827 -0.0337171 -0.217161 0.221496 0.0833669 0.0392378 -0.0588222 -0.00496819 0.140867 -0.13649 0.0112004 0.0769901 0.148403 -0.187676 0.136098 -0.204409 -0.122448 0.0593651 0.0346246 -0.0130445 -0.0673494 -0.270432 0.149389 -0.0390483 0.10549 0.0548306 0.213972 0.138814 -0.159842 0.161055 0.110997 -0.00629107 0.259268 -0.013394 -0.143672 -0.211283 -0.0958487 0.0174195 -0.192946 0.0663947 0.288217 -0.104339 -0.108083 -0.151307 0.132009 0.215445 0.183354 0.0793412 -0.231073 0.00180576 -0.181487 -0.181011 -0.0289836 0.19155 -0.116165 0.152611 0.191712 -0.0383304 -0.0264236 0.262497 0.102134 -0.179107 0.0894055 0.188058 0.250651 0.198218 0.225484 0.038076 0.00370568 -0.222353 -0.219104 0.113466 -0.195586 -0.224492 0.107288 -0.0568285 -0.228836 0.10215 0.0268546 -0.00261491 -0.191574 -0.0152663 -0.10569 0.127311 -0.0934196 0.289151 0.0976509 -0.205753 0.156137 -0.207892 -0.133589 -0.0189698 0.163509 0.226627 0.221427 0.198729 0.0211847 -0.139935 -0.0253871 0.0592476 -0.129121 0.0653318 -0.0623428 -0.096067 -0.244992 -0.217157 0.254185 -0.184747 -0.277144 -0.167222 -0.0635879 0.148649 -0.158906 -0.124662 -0.227166 0.231005 -0.175046 0.214726 -0.174486 -0.109805 0.258412 0.118548 0.0343182 -0.0990817 0.0845951 0.128501 0.24841 -0.0608673 0.137994 0.0779316 -0.035949 0.14646 -0.0214551 -0.122964 0.0999229 -0.224463 -0.0752534 -0.215526 0.121698 0.0541921 -0.244281 -0.131635 -0.0370298 -0.0974297 -0.279297 0.17528 -0.03655 -0.0683659 -0.272406 0.155044 0.157497 -0.264736 0.164394 -0.135664 -0.278164 0.0808182 -0.277246 0.0372846 0.217141 0.134518 0.24308 0.0767858 0.0517795 -0.286136 -0.142091 -0.210243 0.202541 0.1372 0.0484125 -0.228493 -0.2616 0.116233 -0.123952 -0.216115 -0.0138148 0.250687 -0.19223 0.0600844 -0.0606703 0.249363 -0.284444 -0.216402 0.161522 -0.260975 0.0739107 0.023415 0.00677024 -0.1003 -0.000679597 0.123151 0.0120267 -0.182483 -0.201429 -0.217521 -0.199672 0.250259 0.216283 0.17451 0.14874 -0.0455949 -0.267102 0.218755 -0.153311 0.0471093 0.201848 -0.224923 -0.124944 -0.105656 -0.0867679 -0.087204 0.0873718 0.0441846 0.0479495 0.06176 0.0780213 -0.123649 -0.0086342 0.207407 -0.164826 -0.0884619 0.22468 -0.228547 0.153794 0.249302 0.0391863 0.195906 -0.209921 0.271721 0.0842599 -0.215342 -0.200936 0.0426996 0.0497173 -0.107085 -0.080867 0.0861115 -0.168399 0.270443 0.260419 -0.00711334 -0.24176 -0.126823 -0.0718327 0.050141 -0.019101 0.155616 0.0696073 -0.280151 0.283419 -0.250382 -0.133358 0.0215246 0.144564 0.18597 0.239615 -0.00192212 0.285696 -0.236528 -0.149171 -0.265836 0.0467609 0.173182 0.23509 0.000907908 -0.235918 0.0739947 -0.0171721 0.148016 -0.0411375 0.207982 0.0662358 -0.0775957 0.061638 0.117439 0.185498 0.0402685 -0.141093 -0.156767 -0.0175041 0.0918612 0.203152 -0.0357468 0.31337 0.184301 -0.00203853 0.164084 -0.0636535 -0.12138 -0.143043 -0.264825 0.0118747 -0.0233396 0.149117 -0.0418221 -0.11682 0.267287 0.0313304 -0.17946 -0.182863 0.0518919 -0.23538 -0.274496 -0.0529447 -0.287617 -0.281189 -0.298262 -0.111258 0.255673 0.102153 0.272203 0.122303 0.142652 -0.0825487 -0.0265913 -0.159 0.233541 0.126533 -0.244396 0.25926 -0.0867579 -0.0819612 0.067217 -0.15441 -0.0404201 0.1485 -0.142181 -0.107155 -0.220203 0.159831 -0.140657 -0.136731 -0.184809 0.243216 -0.275271 0.0567599 -0.0583569 0.0275556 0.298859 0.193217 0.0210119 -0.135952 -0.0281016 -0.181264 -0.0518168 0.0968945 -0.255491 0.001645 -0.053517 0.0789863 0.157836 0.0843147 0.208453 -0.000442564 -0.17191 -0.0889363 -0.243798 -0.115526 -0.174178 0.143053 -0.0414716 -0.194713 0.138585 0.0919653 -0.09882 0.228877 0.260754 -0.100751 -0.163786 0.257124 0.0488331 0.0958667 -0.0438645 -0.275261 0.223983 -0.0910442 -0.0276389 0.225741 0.0404839 -0.134596 -0.125399 0.0946474 -0.177598 0.0365292 -0.144893 0.252558 -0.0498982 0.101655 0.04704 0.158289 0.0165539 0.052825 -0.244754 0.268143 -0.0932332 0.0884233 0.127364 -0.00271429 0.161877 -0.093202 0.0280997 0.121738 0.0669748 0.152887 0.254986 0.147153 -0.257515 0.172899 0.0719271 -0.0909067 0.23345 -0.15256 -0.276427 0.162587 -0.0423097 -0.0871868 0.0747951 0.0152172 0.235051 -0.00896959 -0.0139174 -0.0152162 0.143474 0.218967 0.106698 -0.256112 0.0869772 0.0356178 -0.17747 0.263794 -0.253975 -0.0635147 0.0525028 -0.021324 0.0280269 -0.131294 0.272107 -0.214045 0.272667 -0.198135 0.0938991 -0.0521511 -0.269796 0.247221 0.150853 -0.240223 0.120114 -0.0718249 0.0279766 0.173415 0.172215 -0.141923 -0.199129 -0.21458 -0.0799262 0.00585936 -0.0644125 0.0880631 0.240421 -0.185377 -0.0832339 -0.233172 0.276185 -0.272107 0.183635 
0.0409466 -0.273077 -0.00523102 -0.272981 0.0251929 0.113936 0.262013 0.147592 -0.225295 -0.00862718 0.23035 0.00156638 -0.0862308 0.23767 -0.267605 -0.190909 -0.280294 -0.140538 -0.20938 -0.0899257 0.0761497 -0.128653 0.166005 -0.172731 -0.253841 -0.152009 0.053441 0.192119 0.0801346 0.111635 -0.279602 0.101491 0.164662 0.111819 0.050569 0.176522 -0.154854 0.229216 -0.282577 0.0356254 -0.0190155 0.224532 -0.158432 0.140501 -0.266984 0.0901518 -0.171173 0.0677796 -0.246202 -0.211171 0.192979 -0.0292725 -0.0789035 0.21749 -0.271211 0.18063 -0.0716525 0.192618 0.233273 0.0527679 -0.0533001 -0.202524 -0.259489 0.214624 0.0555744 -0.0980738 -0.0473864 0.0649922 -0.0257078 0.0684306 0.131046 -0.0156565 -0.104575 0.08743 -0.0575239 -0.0152125 -0.137964 0.226856 0.033318 -0.0222653 -0.258599 -0.218742 -0.168683 0.0606051 0.173398 0.235722 -0.197158 0.159072 0.155301 0.07709 0.237285 0.133108 -0.0216776 -0.214954 -0.181343 -0.134459 -0.194259 -0.173421 -0.0598367 0.0417851 -0.221797 -0.0285999 -0.0120669 -0.25224 -0.109001 -0.185568 -0.214494 0.202562 0.0788621 0.15567 0.202647 0.0100437 -0.128691 0.268275 0.258806 -0.176971 -0.187691 -0.247528 0.208578 0.135762 0.170012 -0.137485 0.00626074 0.264707 0.00525744 -0.118133 0.0971466 -0.101941 0.0333942 0.154163 0.0610724 -0.280561 -0.172462 -0.126069 -0.0331648 -0.0249502 0.0206722 -0.120382 -0.0355171 0.12872 -0.0677163 -0.00855029 0.0096556 0.047104 0.049814 -0.129595 0.230146 -0.0360518 -0.162417 0.237912 -0.233946 0.254846 -0.177689 -0.0310676 -0.120784 -0.16929 0.100135 0.0660395 -0.263945 0.0590182 -0.0389087 -0.15669 0.143184 -0.202345 0.130712 0.242068 0.243657 0.168354 -0.112896 0.04671 0.0780145 0.115899 -0.0391803 0.165586 -0.0463623 0.230737 -0.153793 -0.021487 0.191878 -0.00496525 0.147866 -0.113315 -0.144675 -0.15123 0.100612 0.172184 -0.0794795 -0.166492 0.179053 0.206927 -0.280627 -0.267337 -0.0793137 0.205244 -0.262463 -0.158291 -0.222119 -0.00273388 -0.000508677 0.0881324 -0.136507 0.14327 0.144851 0.212136 -0.0490469 0.0616995 -0.200134 -0.129773 -0.288355 -0.137643 0.227838 -0.194728 -0.299061 -0.224172 0.0313965 0.1674 0.214594 0.0287725 -0.0443454 -0.220023 0.233815 -0.033652 -0.000875929 -0.033614 0.234767 -0.0639193 -0.27934 0.23693 -0.230714 0.0347746 0.295622 -0.210164 -0.125379 0.00571575 0.173927 0.234055 0.0352468 0.243901 -0.165463 0.11835 -0.0747254 8.37937e-05 -0.178683 0.265538 -0.0573092 0.0259689 -0.23458 0.275894 0.0455045 -0.207361 0.064375 -0.268864 0.147763 0.178334 0.0809976 -0.0128672 0.0228114 -0.0312234 0.173052 0.0356912 0.288195 -0.00429986 -0.272359 -0.134575 0.265609 -0.107784 0.0223623 0.00999527 0.191776 -0.0318577 -0.24672 0.177649 0.152391 0.180936 0.152525 -0.0824878 0.194728 0.0264965 0.0420372 -0.241757 0.0539416 0.263772 -0.175447 0.0324918 -0.241999 -0.0827233 -0.220594 0.0794529 -0.141341 -0.0863498 0.0758964 -0.0447649 -0.108234 -0.162426 -0.208368 -0.168395 0.249154 0.0279698 0.026866 -0.159375 -0.131388 -0.0733336 0.00643271 0.118946 -0.0798474 -0.148989 0.211137 0.206146 0.182162 -0.0742628 -0.121233 -0.0341859 0.0213937 0.0926104 -0.225444 -0.131635 -0.255377 -0.24894 0.19737 -0.0161248 -0.0384098 0.253053 0.120602 0.0674257 -0.125037 0.102124 0.220306 -0.230365 -0.0106214 -0.210003 0.100322 0.11562 -0.137479 0.179015 0.200895 0.140046 0.0955995 0.207784 -0.121846 0.208421 -0.116745 -0.145084 -0.117634 0.191467 -0.0783745 0.204081 0.246293 0.168132 -0.173002 -0.171745 -0.186835 -0.023519 -0.0209187 0.239432 -0.139275 0.120883 -0.223906 0.128184 0.175823 0.122886 -0.137199 0.00168432 0.271533 -0.206737 -0.173438 0.12778 -0.14315 -0.0545968 0.0420279 0.134244 0.124891 0.117495 0.115433 -0.218092 0.0219051 0.0523791 0.0399364 0.026031 0.164155 -0.0452291 -0.233043 0.0494452 -0.0707881 0.115931 0.130397 0.0499227 -0.00540041 -0.18521 0.211879 0.236314 -0.275721 0.188756 0.264901 -0.0523809 -0.173643 0.228796 0.170923 -0.0585415 -0.0439739 0.0248489 0.144343 0.240599 -0.0175633 -0.104703 -0.228923 0.00794434 0.218801 0.0470039 0.190047 0.0702382 -0.0820362 0.0385992 0.114905 -0.1111 0.222405 0.206752 -0.286028 0.0935926 -0.024616 -0.16248 -0.0906555 -0.0663013 0.0342788 0.00465045 -0.14708 0.0696998 0.0317262 0.000366019 0.0196762 -0.0942757 -0.230383 -0.120528 0.0793956 0.252579 0.216686 0.142112 0.00503709 0.15405 -0.275411 -0.00102141 -0.0418404 0.0883189 0.0740426 0.135269 0.122747 0.0149481 -0.160785 0.150605 -0.00246328 0.0891622 -0.262409 0.0683387 0.0463974 -0.256343 0.041984 0.264034 0.10429 0.188098 0.141252 0.211917 0.154314 0.0277873 0.0990876 0.0796298 0.0196901 0.0386156 0.168922 -0.193871 0.0273113 -0.224253 -0.154499 -0.0558927 -0.0742777 -0.0413693 0.117492 -0.0790945 0.0729617 -0.182642 -0.248254 0.275665 0.0750771 0.0995156 -0.0217442 0.249562 -0.0433232 0.0768025 0.035278 0.268415 0.192988 -0.153986 -0.112391 -0.0832704 -0.029198 0.263684 -0.110848 0.0272565 -0.123671 0.259111 0.105849 0.251906 -0.248049 -0.0953594 0.173437 0.107595 0.218715 -0.26241 0.0499326 -0.108141 0.0217064 -0.105551 0.109341 0.221753 -0.155489 0.0881737 -0.165635 0.25181 0.170172 0.157761 -0.097698 0.05724 0.0589262 0.221423 0.223718 -0.154902 -0.271675 0.0932911 -0.0756508 0.0026926 -0.130153 -0.10356 0.275428 0.166633 0.0606749 -0.146367 0.146117 -0.172512 -0.187887 -0.00900856 -0.28565 -0.167105 0.226019 0.107715 0.254175 0.0295984 -0.217383 -0.121758 0.166715 0.217997 -0.172688 0.138851 0.15632 -0.00881809 -0.0267955 -0.277063 -0.18687 -0.195349 0.1057 -0.0792814 -0.242943 -0.0121435 -0.262686 0.1586 0.177953 0.237554 -0.121392 -0.122741 0.044596 -0.183751 0.124827 0.0337294 -0.171486 0.119467 -0.0220862 0.0575499 0.0972368 -0.0430764 -0.157824 -0.241008 -0.035507 -0.19088 0.241032 -0.145301 0.150538 -0.123107 -0.213495 -0.178826 -0.134734 -0.174262 0.0248384 -0.262681 -0.147617 0.0558439 -0.283192 -0.167759 0.249623 -0.238403 0.0383876 0.118058 0.0390938 -0.224451 0.221141 -0.0435874 0.0198721 0.120257 0.17158 0.227746 -0.172672 -0.290456 -0.214369 -0.0576091 0.0671815 -0.0779039 -0.241377 0.173602 0.0102432 0.098717 -0.0511173 -0.262917 -0.178398 -0.274872 0.238002 -0.278387 0.0916623 -0.0886439 0.243006 0.183842 -0.151911 -0.143611 -0.116998 0.0108467 -0.258746 -0.0699033 0.173279 -0.251319 -0.0831517 0.105396 0.160375 0.0629173 0.0165515 -0.208156 -0.256187 -0.0948766 0.0639408 -0.151446 0.0188988 -0.223571 -0.122146 0.134729 0.0770137 -0.198767 0.246666 -0.276826 0.174656 -0.0535211 -0.0903411 -0.0520042 -0.283743 0.200013 0.100655 -0.206406 0.00322367 0.171702 -0.0362886 0.132697 0.0427111 0.0254829 0.21258 0.0631231 -0.0692464 0.153679 -0.117657 0.226961 -0.278341 -0.0351789 0.0898465 0.187699 -0.256045 0.121348 -0.0732057 -0.0978515 -0.165086 -0.285683 -0.199115 -0.258247 -0.102899 0.0848054 -0.22684 -0.226149 -0.0617673 -0.260768 -0.219006 0.00946853 0.0231429 -0.268354 0.152834 -0.153899 -0.0772522 -0.252045 -0.0295444 -0.102399 0.082197 -0.0048213 0.0349542 0.150864 0.0533408 -0.244024 -0.105045 -0.109295 -0.220343 0.175494 0.0133753 -0.232342 0.152597 0.0488141 -0.029073 0.156101 -0.256378 -0.187915 -0.0594361 -0.178716 -0.279109 0.183293 0.223796 0.261361 0.103014 -0.075395 -0.152356 -0.193045 0.151534 -0.0476569 -0.0156994 0.0339418 -0.207935 -0.0730461 -0.257365 0.106832 0.12491 -0.177531 0.0230983 0.0394354 0.183002 0.264616 -0.257424 0.0647554 0.200856 0.279253 0.140458 0.256772 0.283223 -0.0373466 0.206763 -0.0220289 -0.172946 0.273887 0.099761 0.0491822 -0.153302 0.114695 -0.0783648 -0.200179 -0.115372 -0.257841 -0.138357 -0.100385 0.261038 0.0273511 -0.275747 0.00768408 -0.0452566 0.212923 0.207086 -0.0931433 0.0919112 0.127784 -0.161819 0.0274542 -0.258762 -0.0220136 0.246553 0.158268 -0.194679 -0.0926444 0.273056 0.0553449 
-0.142308 -0.0378832 -0.0973869 0.270547 0.069797 0.0132904 0.179561 0.129765 0.0686677 0.0603824 -0.0337324 0.152004 0.224062 0.253251 0.217954 -0.214502 0.226823 -0.209627 0.0549468 0.251625 -0.130945 -0.242073 0.125798 0.0628009 0.196088 -0.122883 -0.159981 0.0973519 -0.0952595 -0.160594 -0.139574 0.0470487 -0.150553 -0.242498 -0.184931 -0.0671951 0.0694828 0.250932 0.109082 -0.130288 0.108266 -0.109336 -0.0999848 -0.175142 -0.11837 0.00781676 0.21119 -0.0533194 0.184529 -0.211645 -0.102215 -0.187224 0.258068 -0.233891 -0.203376 -0.0197808 0.0575018 -0.0375399 -0.0762723 0.263876 -0.128592 -0.232494 0.221773 -0.219961 -0.189309 0.275034 0.0787595 -0.0845311 0.106705 -0.20373 0.260803 0.197452 -0.24637 0.0225022 0.0370803 -0.221984 -0.0468923 -0.251779 -0.0951687 -0.0497528 0.158499 -0.234043 -0.0410074 0.196808 -0.234994 -0.116776 0.11403 -0.0726665 0.00430717 -0.110455 -0.0672621 -0.220894 -0.175919 0.195301 -0.140416 -0.0104736 0.110841 0.00809699 0.0526691 0.146731 -0.150239 -0.150735 0.0381479 -0.0414728 0.0422905 0.0416306 -0.148934 -0.0560781 -0.118883 0.108816 0.0963077 -0.162255 -0.169198 -0.22224 -0.238051 0.0988179 0.223137 0.243995 0.268241 -0.144931 0.242736 -0.124669 0.173739 -0.197077 0.192868 0.219559 0.255375 0.270947 -0.209124 0.0779345 -0.226178 0.168021 -0.0751717 0.156213 -0.00695372 0.180042 -0.0961525 0.0963926 -0.0904869 0.210946 -0.199714 0.253545 0.258442 -0.173878 0.0353225 0.0928582 0.0617933 0.179188 0.0874704 -0.162559 0.211343 -0.220155 -0.0379651 -0.0227276 0.0203826 -0.227521 0.0405805 -0.0444567 0.29146 -0.268473 0.223786 0.150466 0.26572 -0.0496522 -0.165589 -0.245637 -0.0936729 0.0362689 0.256408 -0.192869 -0.0906699 -0.160457 0.170777 -0.104975 0.125074 0.119694 0.0355679 0.276551 -0.165892 0.283261 0.00558405 -0.0412363 -0.225926 0.307037 0.23734 0.263132 -0.190136 0.0716814 -0.0293014 -0.181643 0.214818 0.132544 -0.252048 -0.185143 -0.137941 -0.236262 0.103437 0.26133 0.247414 0.222208 -0.174458 -0.247693 -0.22418 0.0917636 -0.0811378 -0.186055 -0.131001 -0.226175 0.0989375 0.234366 0.250821 -0.180785 0.256812 -0.0849308 0.213875 -0.187493 0.0570342 -0.12804 0.0128357 -0.0140405 0.272064 0.040874 0.216144 -0.0500312 -0.224167 0.209637 -0.029114 0.157293 -0.0114028 -0.232479 -0.152054 -0.185314 0.0254793 0.265808 0.22632 0.0471314 0.195292 -0.205901 0.0932937 -0.188172 0.148195 0.0837548 -0.18468 -0.0582935 -0.22486 0.137387 -0.125676 0.113087 -0.0657716 -0.259839 0.0231743 0.17924 0.275295 -0.22742 -0.051562 -0.263344 0.131375 -0.239782 -0.192874 -0.111738 -0.229982 -0.21231 -0.17663 -0.19489 -0.11025 -0.0776034 0.221422 0.107771 0.0518068 -0.144804 -0.112845 0.216111 0.109092 0.0867351 0.116854 0.111992 0.0466278 0.146007 -0.247701 0.250616 0.250233 0.156962 -0.178346 -0.190231 0.156719 0.261458 -0.140052 0.231977 0.107522 0.0217613 0.258034 -0.0260043 -0.0886483 0.070628 -0.0338908 -0.033056 -0.263843 0.0691401 -0.245147 -0.011553 0.262086 -0.0122508 0.289403 0.110671 0.291673 -0.00625721 0.0789639 0.0521107 0.206787 0.177533 -0.251266 -0.0898794 0.0527909 0.268138 -0.145099 -0.242999 -0.227651 0.0421194 0.0139426 0.294039 0.125367 0.239259 -0.00687548 -0.238272 0.15566 -0.00175002 0.0936869 -0.158394 -0.151829 -0.0632383 -0.255675 -0.250408 -0.220583 0.277988 -0.249967 0.0227101 0.0970737 -0.120355 -0.0999141 0.109044 -0.179163 0.100162 -0.114424 0.180856 -0.0551896 0.106506 -0.176222 -0.152028 -0.0109653 -0.110791 0.223333 0.123861 -0.166176 0.0302746 0.180411 -0.290814 -0.00475433 0.207595 0.0280024 0.00654766 0.253899 0.0492118 -0.0475634 -0.137635 0.0725992 0.0352378 -0.282855 0.117133 0.0724971 0.0735686 -0.266762 -0.181334 0.26244 0.0439734 -0.0768749 -0.124476 -0.115308 0.257897 0.0862323 0.12175 -0.0656575 0.0494865 0.104939 0.0715387 0.0259929 -0.173471 -0.279798 -0.118284 0.0798178 0.228426 -0.21899 0.13969 -0.0373306 -0.0227607 -0.143001 -0.0343973 0.134461 -0.0450447 0.0385088 -0.194614 0.0682022 0.28093 0.190137 -0.00139861 0.169575 0.262872 -0.202176 0.08763 -0.29671 0.182658 -0.254468 -0.120518 0.256117 -0.212125 -0.224754 0.111423 0.259595 0.25801 -0.145587 0.151828 0.138309 0.174808 0.0953677 0.0350729 0.17612 -0.253271 -0.153198 -0.154634 -0.11858 -0.229819 -0.00236014 -0.135238 -0.102818 0.160498 -0.29094 0.183354 0.0537487 0.105119 -0.0825124 0.120869 0.023186 -0.254404 0.0417293 0.143907 -0.127503 -0.278159 0.0258717 0.0949532 -0.0356632 0.106346 -0.140859 -0.174071 0.0472343 0.106114 -0.0163912 0.0203079 0.0122612 -0.108863 -0.0131792 0.10206 -0.282047 0.10791 -0.318061 0.118666 -0.118431 -0.0125703 -0.158601 -0.0331117 0.0963809 0.186756 0.0274126 -0.0739192 0.0354091 0.181805 0.0606494 -0.134644 -0.0690642 -0.0824233 -0.200361 0.0790717 0.262266 -0.106128 -0.234159 -0.1586 0.0289209 0.267013 0.138203 0.185345 0.16479 -0.0355446 -0.167207 -0.118776 0.247007 -0.0564556 0.182368 0.0139308 -0.0832857 -0.177713 0.112732 -0.051273 0.0295093 0.156914 0.00740591 0.0476025 0.191516 0.112633 0.278825 0.168407 0.150725 -0.0647912 0.117013 0.0604557 0.0858199 0.187655 0.243057 -0.160564 -0.326692 0.0365308 -0.0982947 -0.277701 -0.106331 0.053531 0.15348 0.24907 -0.164378 -0.0562611 -0.154286 0.10021 0.00531753 0.158225 0.0856375 0.219523 -0.0313638 0.0246607 0.256806 -0.0812348 0.0181049 0.20549 0.302787 -0.133996 0.074354 0.242435 -0.266588 -0.0845385 0.217736 -0.231386 0.0700953 -0.244171 -0.172708 -0.023107 0.299594 0.11134 -0.162108 0.105426 0.191937 -0.026351 -0.0653919 0.0328123 -0.187511 -0.182491 0.110667 0.172125 -0.205729 0.155674 0.0706916 0.274149 -0.155961 0.0014867 -0.188347 -0.00458151 -0.0488146 -0.242112 -0.0211413 0.07219 0.0479648 -0.17208 0.204051 0.174172 0.168537 0.183194 -0.146845 -0.0759643 0.263883 -0.272556 -0.0939909 0.0227956 0.0712908 -0.056089 -0.16323 -0.0132707 -0.14973 -0.272829 0.273572 0.0246443 0.303626 0.131834 -0.227274 0.258155 0.20289 -0.194762 -0.116163 -0.125303 -0.0898815 -0.202979 0.195795 -0.180354 0.264748 -0.240006 -0.0328153 -0.192607 -0.240585 -0.227006 -0.255702 0.188163 0.262874 0.112923 -0.10611 -0.177979 -0.150212 -0.262449 0.154939 0.277762 -0.236383 0.0597141 0.044964 -0.131035 0.314658 0.224543 0.0548122 -0.0270209 -0.140191 -0.104172 0.00604468 -0.224399 0.179992 -0.0446594 -0.0850644 0.191193 0.158507 -0.169647 0.212085 -0.198611 -0.0250637 -0.233661 0.264721 -0.0173107 0.0154483 -0.272816 -0.1225 0.0142254 0.28516 0.135188 0.0950494 -0.039012 0.0253267 -0.0697625 0.24213 -0.22861 0.271929 -0.0268735 -0.128796 -0.0237741 0.256645 -0.127687 0.167635 0.135495 0.24922 -0.0233547 -0.0124773 -0.248161 -0.235824 0.186215 -0.0640602 -0.171815 -0.20783 0.214679 0.169005 0.0537779 -0.273504 -0.167662 0.201106 -0.0634363 0.219214 -0.22373 -0.0163018 -0.027737 0.261716 0.105354 -0.124069 0.0809921 0.275227 -0.0356547 0.128376 0.147849 -0.160697 -0.0495247 0.123437 -0.22675 -0.0377348 0.0721799 -0.245275 -0.0844014 0.246308 -0.193639 -0.245802 0.237165 -0.219296 0.205827 0.202882 -0.0166319 0.0880057 -0.0381678 -0.144096 -0.23801 0.0375111 0.141239 0.184725 0.144844 0.190827 -0.233036 0.17082 -0.062013 0.179376 0.0596853 -0.0135189 -0.00210017 0.226259 0.247314 -0.0675399 -0.169997 -0.217179 -0.14538 -0.0601284 -0.244986 0.213424 -0.229759 -0.0128565 0.223989 0.104681 0.0809395 0.178725 -0.0804864 0.26208 0.270201 0.279214 0.0139446 0.237431 0.089433 -0.107039 0.269382 -0.147612 -0.0467782 0.102814 -0.0875011 0.0983533 0.155709 -0.21895 0.152938 -0.0393387 0.26632 0.163051 -0.130197 0.280644 0.118236 0.109257 -0.176448 -0.25572 -0.179301 0.182285 0.193427 0.142456 -0.114025 0.0288026 -0.284666 -0.204603 -0.238796 -0.220361 0.144559 -0.125026 -0.0484528 0.26171 0.0483459 0.0501555 -0.19041 
0.233395 -0.188955 0.279693 -0.192569 0.110693 -0.0606216 0.0594087 0.137679 -0.0189003 -0.22267 0.0748506 -0.0306925 0.00578913 0.0607453 0.189435 -0.276132 -0.0190176 0.276009 -0.135753 -0.115685 0.204722 0.1296 -0.0544291 -0.166798 0.240259 0.20748 -0.271863 0.0670193 -0.267831 -0.109921 0.0466819 0.143365 -0.0105218 0.04827 0.251122 0.118838 0.188864 -0.0159265 0.101559 -0.114997 0.227505 0.0122191 0.0953826 -0.0309684 -0.0181913 -0.0485349 -0.126709 -0.152818 -0.177508 0.148187 0.0707615 -0.00483581 -0.0799238 0.165019 -0.244732 -0.15497 0.104724 -0.192273 0.0489695 -0.0267911 -0.069006 -0.138405 0.0965519 0.0468095 -0.0119638 0.11905 -0.104677 0.0762953 -0.173985 0.260134 -0.273169 0.0108817 -0.263959 0.139462 0.0913857 -0.275855 -0.219727 -0.277524 0.177935 0.00334925 -0.123314 0.277087 -0.106239 0.0237257 0.170357 -0.276452 -0.0832852 0.199168 -0.15445 0.0951957 -0.0550944 -0.040707 -0.0640534 -0.225526 0.111875 0.0236756 0.195965 -0.0934204 0.1921 0.249486 -0.223852 -0.154956 -0.0563493 -0.13103 0.0172022 -0.00887884 -0.0140852 -0.119287 -0.0315148 0.200246 0.179225 -0.0358917 -0.263173 0.270345 0.157516 0.191975 -0.158609 0.00113601 -0.107707 0.0239684 -0.258323 -0.202609 0.0126775 0.143544 0.128855 -0.127506 0.280928 0.167393 -0.0672363 0.24854 0.126655 0.109754 -0.0730793 0.030864 -0.100099 0.242684 0.155058 -0.116298 0.247056 -0.276676 -0.052071 0.0652078 -0.279301 0.0715014 0.201423 0.246596 0.150084 0.0160901 0.194124 -0.129515 -0.109654 0.123553 -0.167371 0.141321 -0.00879158 0.0134632 -0.230043 -0.00956287 -0.156201 0.173936 -0.141948 0.120493 -0.27087 0.194713 -0.201298 0.158367 -0.0235048 -0.155162 -0.00544542 0.169136 -0.183155 0.0374896 -0.167451 0.129719 -0.0752356 -0.0786006 -0.218576 -0.00901627 -0.169414 0.174681 -0.254795 -0.124266 0.142513 0.254686 0.210954 -0.127557 -0.114292 -0.143214 0.148543 -0.0418402 -0.088494 -0.0446799 -0.0425533 0.126504 -0.115712 0.172287 0.0178299 -0.234637 -0.0210101 -0.278772 -0.143867 -0.227052 0.103036 -0.285831 0.154872 -0.229683 0.0872379 0.0023411 -0.193638 0.130267 -0.041384 -0.0912749 -0.0362193 0.222545 -0.167183 0.0149513 -0.152989 -0.00252161 -0.0433371 -0.0383706 0.0424262 -0.123603 0.155964 -0.142913 0.181926 0.0437198 -0.141066 0.229569 0.197923 -0.101093 0.0530354 0.103062 -0.0401582 -0.262947 0.0971612 -0.0456987 0.0399948 -0.0946001 -0.160704 0.111965 -0.240324 0.223551 -0.0820062 -0.175542 0.206256 -0.114585 0.116252 -0.105658 -0.230577 0.196583 -0.121303 0.205384 0.227481 0.224429 0.209155 -0.0843069 0.0821788 -0.280117 -0.212766 0.0833119 0.0133099 0.204003 -0.0159432 0.0373731 0.222548 -0.24602 -0.0622959 0.294268 0.270206 -0.14909 0.00744401 0.162562 -0.0363062 0.103797 0.104772 -0.169262 0.252509 0.0638081 -0.26684 -0.0015115 0.199727 0.157713 0.0992291 -0.281978 -0.18839 0.0134428 -0.0857391 0.147895 0.224164 0.00614582 -0.164835 -0.0246959 -0.0926097 -0.0431888 -0.187172 0.234152 -0.193527 0.143989 0.134889 0.0837784 0.24663 -0.20966 0.0909356 0.271218 0.0346959 0.0299258 0.115724 -0.0170218 -0.0833126 0.00444353 -0.218058 -0.0408994 0.0104469 -0.278084 0.0090558 -0.278612 0.144986 -0.00336771 -0.27677 -0.179912 -0.185084 -0.0624518 0.16979 -0.100606 -0.242081 -0.286351 0.0972414 0.184823 0.16511 0.202485 -0.215743 -0.00788079 0.279657 -0.0998289 0.0400885 0.124088 -0.04442 -0.189045 0.264697 -0.198219 -0.119327 -0.256753 0.0853298 0.268629 -0.190213 -0.254473 0.0120454 -0.245643 0.0477795 -0.0907002 -0.204084 -0.203026 0.0497228 0.147381 0.237021 0.23464 0.0467978 -0.231881 0.037823 0.008 -0.0242364 0.148203 -0.123334 0.0356751 0.0716659 -0.208496 0.0171959 -0.283312 0.238959 0.144385 0.274838 -0.244919 0.241211 0.178411 -0.16069 -0.221755 -0.13025 0.242155 0.17273 -0.0173663 0.100885 -0.221592 0.149067 0.0789894 -0.169475 0.0784488 0.00673154 -0.00724649 -0.180483 -0.157475 -0.236014 0.136214 0.192427 -0.101158 0.155566 -0.143509 -0.00364804 0.267799 -0.210357 0.215012 0.0736978 0.0961324 0.189693 -0.0906866 -0.0555438 0.0355891 -0.148655 0.0480617 -0.19426 -0.130874 -0.0607875 -0.221623 0.142991 -0.196123 -0.0612525 0.126168 -0.253022 0.243531 -0.283862 0.266597 -0.0254106 0.226444 -0.279196 -0.1647 0.134408 0.0981652 0.0144467 0.214897 0.0283576 0.0203537 0.220726 -0.127341 -0.194584 -0.249086 -0.0580364 0.182101 -0.265384 0.0709987 -0.132426 -0.21722 0.200462 -0.242946 -0.013711 -0.0540989 0.144523 -0.202569 -0.207177 0.220271 0.0422218 0.26995 0.0131413 -0.0906887 0.271799 0.00312194 0.155277 0.121498 -0.227711 -0.0325988 -0.0970511 0.00911947 -0.256989 0.151991 -0.0823699 -0.215955 0.00111935 0.163161 -0.235058 0.130343 -0.136349 -0.000394707 0.235588 -0.0758261 -0.0331412 -0.0582399 0.0750199 -0.227199 0.218464 -0.0898647 0.0789067 0.281151 -0.160678 0.062293 0.0267278 0.190379 0.0342475 0.0614279 -0.0237211 -0.167331 -0.163904 -0.266526 -0.292515 0.150112 -0.23161 -0.033562 0.273806 0.0168837 -0.11232 -0.119321 -0.254435 0.0309638 -0.099379 0.0338862 -0.0618744 -0.16444 -0.124198 0.210063 0.0824858 0.0787976 0.251395 0.0840644 0.2294 0.0722986 -0.077814 -0.268698 -0.269596 -0.236405 0.0460991 -0.0776647 -0.231454 0.0430061 0.195979 0.194437 0.233801 0.0757295 -0.222508 0.194347 0.0442678 0.0294922 0.212609 -0.0226192 0.0413491 -0.256195 -0.226489 -0.0860805 0.27761 0.117024 -0.222445 -0.0837044 -0.163813 0.115884 -0.141071 -0.117792 -0.190318 0.0819001 -0.0812928 0.262713 0.256814 -0.20574 0.162994 0.119934 0.17406 -0.221439 -0.14417 -0.249924 -0.0312761 0.18876 -0.141144 -0.0391832 -0.00176187 -0.117923 0.104476 -0.11893 0.0800026 0.149874 -0.193288 0.0975915 -0.209138 0.168875 0.0272588 0.0208809 -0.18659 -0.139124 0.240858 0.131576 -0.248844 0.110438 -0.219913 -0.109417 0.0788489 0.270648 -0.266632 -0.290518 -0.293725 0.0927373 -0.278519 0.0309824 0.208076 -0.153767 -0.170647 0.260729 -0.167185 0.117931 0.0945541 0.229837 0.14501 0.238824 0.0196305 0.0812681 0.237496 -0.0762923 0.150295 0.19908 0.258877 -0.09784 0.0627654 -0.194878 0.22825 0.168511 -0.034356 0.0170584 0.0532465 -0.189907 0.093526 0.0947299 -0.0301886 -0.0720178 0.211464 -0.176256 0.0453279 0.278897 -0.0342813 -0.0153643 0.115915 0.0402027 -0.0710562 0.176525 0.212018 0.22269 -0.10486 0.152064 0.164646 0.00892735 0.0751213 0.0646321 -0.26735 -0.000672304 -0.24106 -0.284813 0.0460707 0.150987 0.0736676 -0.0343348 -0.264381 -0.129379 0.0815517 0.0545539 0.0702822 -0.241762 0.180742 0.0150586 -0.168523 -0.145263 -0.160928 -0.244073 -0.0190906 -0.232756 0.156127 -0.00787836 0.0363902 -0.115698 0.00558175 0.165796 -0.0415134 -0.108711 0.123934 0.0891238 0.118455 0.169032 -0.056528 0.0918799 0.247333 -0.162958 0.2176 0.199104 -0.189297 -0.0171923 0.097824 0.170255 0.132586 0.121986 0.284148 0.0987778 -0.214681 -0.0213351 -0.19905 -0.103187 -0.0364968 0.26628 -0.0794889 0.0465023 0.157644 -0.175637 -0.0781427 -0.16978 -0.167278 0.20839 0.0345233 0.137507 -0.0294971 0.245113 -0.0804344 0.18035 0.0293474 0.229178 0.0384428 -0.0342841 0.186953 -0.0626776 -0.194966 -0.206249 0.244377 -0.191705 0.195876 0.112143 0.0012344 -0.0304502 0.149522 -0.0775568 -0.00539769 -0.260595 -0.265721 -0.0157286 -0.191558 -0.0865566 0.0550922 0.0437224 0.0373884 0.0645846 0.024205 -0.235596 -0.00353494 0.183628 -0.229933 -0.0223386 -0.0269876 0.231738 0.00124555 -0.170225 0.0855738 -0.0210696 -0.136127 0.268508 -0.161961 0.158625 0.0629501 0.253707 0.14745 0.199529 0.259061 -0.0611054 -0.168642 0.236944 0.175043 -0.114339 -0.106561 0.215287 0.196589 -0.0541981 -0.0799935 -0.279772 0.222401 -0.199531 0.166679 0.159768 0.0287902 0.217372 -0.169241 -0.160551 -0.0281368 -0.197793 -0.211945 -0.254339 0.14132 -0.109623 -0.275626 -0.0141497 0.157086 0.100459 0.167587 0.110767 0.171791 0.0479218 -0.207294 0.169369 
0.234176 -0.0449704 0.014426 -0.2512 0.0668791 0.118407 -0.190455 -0.252382 -0.21201 -0.227337 0.221854 0.13015 -0.204985 -0.0973227 -0.264219 0.0154442 0.237073 0.282088 0.134825 0.236542 0.193553 -0.171361 -0.244537 0.0864133 0.131629 0.0999383 -0.141299 0.254102 0.121617 0.193908 0.215849 0.281064 -0.246118 -0.133112 0.260514 0.0913031 -0.227771 -0.061656 0.278045 -0.165323 -0.239646 -0.0568019 0.25336 0.019301 0.281074 0.161646 0.00023899 0.0811806 0.282911 0.0683828 0.135352 0.254972 0.128861 0.269097 0.283489 -0.143943 -0.181648 0.201804 0.0649113 -0.249741 -0.14733 -0.164454 0.238826 0.245233 -0.131482 -0.123982 -0.263539 0.0701601 -0.22231 0.265427 0.233218 -0.239598 0.0155992 -0.176247 0.286674 -0.276859 -0.12708 0.0657595 0.276655 -0.268562 0.231056 0.0976823 0.130898 -0.267106 0.262036 0.0992078 -0.0971625 0.264222 0.194936 -0.1092 -0.254402 -0.0642196 0.0906549 -0.28355 0.0480653 -0.171671 0.0117278 -0.209271 0.108361 -0.239103 0.271791 -0.169739 0.240464 -0.0927103 -0.0230075 -0.167746 0.219362 0.114387 -0.187784 -0.143758 -0.0418405 0.131033 0.135189 -0.12012 -0.0924522 0.0450095 -0.0676225 -0.251024 0.0717946 -0.147897 -0.071875 0.242869 0.217298 0.11772 0.0290185 -0.153139 0.250427 -0.100682 -0.271194 0.00541726 0.00703893 0.122925 0.0583831 0.127112 0.072234 0.165219 -0.240508 -0.201575 -0.0547621 -0.22617 0.277919 -0.0593902 -0.231942 -0.0880245 -0.0676683 0.160665 0.238277 -0.247994 0.107281 0.18358 0.164645 -0.00888651 -0.122907 0.128243 0.247416 -0.14509 -0.155518 0.226296 -0.275316 -0.256935 0.116618 -0.250086 0.00677429 -0.0563188 -0.152336 0.24566 -0.190965 0.0472637 -0.226046 0.0287558 0.042552 -0.28032 0.138887 -0.143909 0.0982481 0.175894 0.201594 -0.134956 0.212129 0.237928 0.175006 -0.268938 -0.208404 0.161914 -0.201475 -0.0765172 -0.0210669 0.157466 -0.235194 -0.0468333 -0.211384 -0.143019 -0.0240311 0.134728 0.19924 -0.00927447 -0.275942 -0.183542 -0.177486 0.0726758 -0.230129 0.204057 0.0547551 -0.039747 -0.121355 -0.0728054 -0.0377279 0.0422664 -0.170191 -0.151206 0.215012 0.277739 -0.240327 0.11396 -0.132631 0.0957414 0.124303 -0.24425 -0.035341 0.166665 -0.124867 0.166217 0.025254 0.215323 -0.228923 0.00295274 0.222001 -0.133907 0.228728 -0.205391 -0.0609136 0.105392 0.17597 0.0623192 -0.260482 0.283384 0.0337053 0.126869 -0.101454 0.137832 -0.258364 -0.235049 0.198275 0.0634368 0.180334 0.194884 -0.0497322 -0.0927907 -0.25712 0.178781 -0.0365924 -0.16154 0.210374 0.27432 -0.0819683 0.0120631 0.218607 -0.270505 0.240072 -0.00414006 0.266699 0.209762 0.209515 0.0972236 0.105288 -0.125068 0.0468902 0.0881747 -0.0552834 -0.0928106 -0.070172 0.224198 0.154503 0.281856 0.0988013 0.216831 -0.16929 -0.0958063 -0.175201 -0.274359 0.189089 -0.00766383 0.0659845 0.277405 -0.159841 -0.105644 0.109745 0.0896616 -0.00873189 0.180355 0.303102 0.173126 0.000516836 0.224831 -0.136578 0.168548 -0.308892 -0.256869 -0.172182 0.0100468 0.134569 0.259175 0.241914 -0.24999 0.185302 0.196925 0.068038 0.264476 -0.246253 -0.168843 -0.0151808 0.0195602 -0.0157657 -0.0542907 0.0817223 0.187438 0.261671 0.0163195 0.0796609 0.00717956 0.231738 -0.104083 0.235355 0.231682 -0.1334 0.253 0.0200626 -0.0172396 -0.0390612 -0.175438 0.0334412 -0.278327 0.163323 0.18283 0.148836 0.151264 -0.106339 -0.0323553 0.144881 0.193554 -0.104246 0.137742 0.148968 -0.110471 -0.0832462 -0.205846 0.21289 -0.106661 -0.259304 0.191434 -0.0109795 -0.230175 0.21186 0.257715 0.241592 0.0702159 0.232793 0.140016 0.210663 -0.131373 -0.00878804 -0.212956 -0.0177641 0.221046 -0.182529 0.166271 0.0546111 0.0500677 -0.208951 0.17654 -0.219608 0.268714 -0.0978886 -0.0450284 0.121165 0.221502 0.0891904 -0.0112531 0.142632 -0.200774 0.106459 0.00851439 0.00391953 -0.231289 0.164231 0.199296 -0.0321121 -0.134304 0.206337 -0.268724 -0.203948 -0.0747767 -0.195902 0.0293522 0.170688 -0.120328 -0.0549538 0.205913 -0.170356 -0.198039 -0.0761226 -0.0568574 0.209316 0.218852 -0.290966 -0.223781 0.0826485 -0.216864 0.178942 0.0219082 0.0990756 -0.0172857 -0.237517 -0.219927 -0.135201 -0.20568 0.0445399 -0.261256 0.269346 0.133079 -0.242569 0.0731867 0.153089 -0.200687 -0.123368 0.216194 0.225378 0.205561 0.274485 0.041083 -0.0766827 0.266966 0.19879 0.135357 -0.122839 0.048288 -0.144004 -0.234379 -0.230714 -0.067805 0.112096 0.0698572 -0.138384 0.149988 0.00468995 -0.171481 -0.0294799 0.160906 -0.152761 -0.178909 -0.0679836 0.27226 -0.0728808 0.0784523 0.0593744 0.0320422 -0.125807 -0.046696 0.0273825 0.241281 -0.270438 0.201469 -0.215761 -0.0741166 -0.240972 0.175287 0.102617 -0.139364 -0.15915 -0.0664151 -0.251912 -0.118258 0.18697 0.0775344 -0.132984 -0.198652 0.270147 0.0048525 -0.0350191 0.197469 -0.14124 0.273139 0.19202 0.0488389 0.0496988 -0.254123 0.268573 -0.115662 -0.186472 -0.165481 -0.14949 -0.262954 0.248637 0.285447 -0.267958 0.173383 0.218824 -0.0590399 0.0874898 -0.0398128 -0.0992679 0.273113 -0.182194 0.0917192 0.0979766 -0.00848031 0.105219 -0.00630469 -0.173468 -0.104152 0.114273 -0.265487 0.0550242 -0.00431756 0.24439 -0.141598 0.205449 -0.0304848 0.256075 0.0884742 -0.0599832 -0.161116 0.0196985 -0.243643 -0.151123 0.162829 -0.185991 -0.282212 0.204678 -0.0409019 -0.0852089 0.209439 0.0492421 0.283875 0.270275 0.116741 0.0360757 0.198102 0.0984593 -0.258865 -0.136768 -0.249619 -0.177536 -0.227558 -0.228146 0.11321 0.0937513 0.211676 -0.229055 -0.124739 0.0907284 0.234593 0.0621045 0.224012 -0.0376568 0.0897502 0.25281 0.275009 -0.118336 -0.11362 -0.158912 -0.0890649 -0.131666 0.120676 0.038221 0.180598 0.0711264 0.0360767 0.214189 -0.153237 0.0537928 0.0190811 0.280603 0.257739 -0.0782656 -0.114817 -0.088549 0.203092 0.175148 -0.048129 -0.233023 0.0634455 -0.102114 0.0364303 -0.0461484 0.00236268 0.218876 0.182536 0.250981 -9.19423e-06 -0.127591 -0.0860005 -0.0655121 -0.13394 -0.112494 0.25644 0.100547 0.181227 -0.0769617 -0.027869 -0.234818 0.218737 -0.00875675 -0.218296 0.0502691 -0.0500068 0.00272307 -0.132385 0.236185 -0.198804 -0.17487 -0.0869712 0.0152511 -0.0672304 -0.234804 0.200191 0.230437 -0.192192 0.112221 -0.244047 0.154992 0.213681 0.207799 -0.0768076 0.0409923 -0.163676 0.261348 -0.235881 -0.171169 0.263149 -0.183744 0.267324 0.144344 0.216492 -0.197686 0.0238941 0.139543 0.153986 -0.247829 0.0847477 0.19054 -0.155186 -0.159686 0.259887 -0.0624757 0.158771 0.245799 0.263719 0.130772 -0.117463 0.100936 -0.0304134 -0.126468 -0.224813 -0.288313 0.204241 0.275672 -0.237893 -0.0372869 0.219953 0.0393907 0.0896523 -0.250506 -0.0114152 0.156112 0.0677706 -0.281957 0.203611 -0.147725 -0.131217 -0.0616207 -0.269637 0.0349062 0.282472 -0.158462 0.243364 0.00725059 -0.0315308 0.249261 -0.025347 -0.0158758 -0.243006 -0.265465 -0.031089 0.231912 0.208882 0.0355644 -0.166519 -0.0315019 -0.0532306 0.111838 0.152053 -0.00589588 -0.102017 -0.0782513 -0.238987 0.279723 0.166123 0.0476032 -0.164542 -0.214433 0.249588 -0.0863114 -0.104138 0.184939 -0.24073 0.242948 0.233481 0.184553 0.157321 0.285655 -0.239494 0.177073 0.0549956 -0.0902817 0.114651 0.280687 -0.229575 -0.0828049 -0.218433 0.219741 -0.0318503 -0.0677923 -0.21689 0.0926715 -0.0449274 0.11917 -0.148251 0.0764742 0.214672 0.0388547 0.0793628 0.113735 -0.247242 -0.184229 -0.0154816 0.282785 -0.213685 -0.218477 -0.169386 0.130519 -0.177454 0.00413717 -0.000295293 -0.237489 -0.0303772 0.0457764 0.269666 -0.207997 0.151379 0.171816 -0.0201858 -0.198115 0.26385 -0.158163 0.154527 0.0467825 0.0316983 0.0478295 0.272499 -0.156161 -0.108495 0.170022 0.080283 -0.139795 0.133632 0.150266 0.192189 0.259355 0.157129 -0.245479 0.0470976 -0.212775 -0.0251897 0.137125 -0.110078 0.12559 0.05199 -0.233067 0.0390993 0.117377 0.130102 -0.273323 -0.217306 
0.15247 0.0345646 -0.258286 0.260604 0.245626 0.131544 0.164682 0.263805 -0.199386 0.118734 0.203237 -0.0071668 -0.146734 -0.0432683 -0.0788552 -0.219316 -0.173812 -0.198121 0.279994 -0.0292969 0.0920846 -0.172146 -0.268262 -0.275427 0.229015 -0.228592 -0.122164 -0.0438229 0.0646624 -0.252051 -0.158031 0.193032 0.265205 -0.281355 -0.202939 -0.124095 -0.0702803 0.025616 0.206472 -0.00945835 0.187961 0.259298 0.0490426 -0.130113 -0.0825884 -0.0600823 -0.227724 -0.0386913 -0.243659 -0.0902392 -0.179877 -0.0762344 -0.232004 -0.209394 0.259275 -0.0835236 0.186851 -0.0353814 -0.261009 -0.200971 -0.161973 -0.185275 0.0146334 -0.0220153 0.0493722 0.051335 -0.0208944 0.277604 -0.000862494 0.245677 -0.223236 0.271552 0.274253 0.17394 -0.234019 -0.00742 -0.0843415 -0.129728 -0.128418 -0.0911223 -0.211884 0.142266 -0.121213 0.183644 -0.253636 -0.158161 -0.226253 -0.180343 -0.167386 0.259524 0.144228 -0.0970372 -0.128321 -0.0234387 -0.0223629 0.00437048 0.13746 -0.102874 -0.0327938 -0.0384676 -0.120068 0.0307041 -0.261489 0.182153 0.161901 -0.0982131 -0.218493 -0.117918 0.198885 0.0841978 0.0724029 -0.0335197 -0.190487 0.245101 0.135928 -0.189093 -0.0225317 -0.219441 -0.276323 -0.175436 -0.151423 0.157613 0.0369095 -0.209878 0.215373 0.259276 -0.131249 0.129441 -0.0767935 -0.19089 0.0910981 -0.221954 0.0225774 0.225862 0.00532958 -0.118294 0.269504 0.212483 -0.0708204 0.142443 0.00769037 -0.207584 -0.264359 0.0640034 -0.124409 -0.0431638 0.218103 0.22934 0.193989 -0.233876 0.26597 0.00390176 -0.0154814 -0.199294 0.203404 0.237431 -0.00576721 0.101771 0.075977 -0.115776 -0.193448 0.0233242 -0.168483 0.0957899 -0.262618 -0.128448 -0.166835 0.0132443 -0.191375 -0.210303 -0.127841 -0.214897 0.261017 -0.147164 0.180287 0.263318 0.192673 -0.0416647 0.298467 -0.0946709 0.245029 -0.305796 0.212023 -0.0312729 -0.0535966 -0.191008 0.25576 0.0192029 -0.0267331 0.160702 -0.0697486 0.039935 -0.250248 -0.2468 -0.0502537 0.0715335 0.190664 0.100655 0.282319 0.0441636 -0.145384 0.0360445 0.267023 -0.245773 0.157571 0.0113308 -0.088091 -0.0211935 0.0973817 0.0124128 -0.297472 -0.00564271 -0.0437386 0.169681 -0.246685 0.0516619 0.192073 -0.190617 0.228896 0.0716685 0.0724907 0.0841594 -0.280248 0.055701 -0.0198494 -0.0242752 0.231056 -0.0430132 0.0304172 -0.171418 -0.194977 0.151668 0.27073 0.0390195 -0.121482 0.138742 0.123614 -0.27421 -0.231664 0.247068 -0.111164 0.230548 -0.0768274 -0.152522 0.194595 0.239197 -0.200821 0.193067 0.134077 -0.023948 -0.102209 0.00305024 0.257186 0.0800497 -0.097063 0.141286 -0.0195731 0.0193138 0.209408 -0.178522 0.237238 0.18925 0.215431 0.0443762 -0.0688702 0.107871 -0.268085 0.289613 -0.152627 -0.277273 0.271041 0.160623 -0.051075 -0.220454 0.14767 0.25366 -0.220297 -0.221202 0.161326 0.254949 0.273169 0.202169 0.0581773 0.263814 0.00350043 0.143419 0.197315 0.25942 0.188758 0.144743 0.194699 0.244198 0.138589 -0.115507 0.22699 -0.274025 -0.161707 0.00147096 -0.17968 0.2148 -0.0252657 -0.192522 0.0832998 -0.174395 -0.213769 0.0985113 0.0924223 -0.119259 -0.259865 0.0913049 0.251464 0.0876553 0.196787 -0.0291394 -0.255632 -0.107914 0.148435 0.160925 -0.0180933 -0.279893 -0.0434052 0.239653 -0.0242411 -0.225947 -0.303795 -0.293936 -0.0580066 -0.22975 -0.254639 -0.158553 -0.248367 0.220586 -0.0871899 0.228241 -0.0732146 -0.0733271 0.274056 -0.171464 -0.0164561 0.00798311 0.114491 -0.0643964 -0.0574146 0.216005 -0.113131 0.191109 -0.292975 -0.102373 -0.288255 0.182278 0.159098 0.0150929 0.0836476 -0.190342 -0.249956 0.014002 -0.128629 -0.106764 -0.290489 -0.191602 0.0624878 -0.230646 0.179644 0.169088 0.0759657 -0.0687853 0.201849 0.0502731 -0.265769 -0.161731 -0.240102 -0.0997207 -0.0873752 -0.259578 0.267242 -0.124613 -0.206802 -0.074308 -0.158025 -0.160809 -0.0718714 -0.300696 -0.293435 -0.0678646 -0.113588 -0.128928 -0.288003 0.154554 -0.00478764 0.0432362 -0.0723018 -0.221918 -0.156161 -0.160076 0.163699 0.186419 0.260226 -0.211025 -0.169225 -0.226719 -0.24798 -0.0250521 -0.0601471 0.283578 -0.0592094 -0.147406 -0.0258354 -0.0167921 0.091654 0.220783 -0.0623 0.131886 0.0199734 0.192518 -0.229829 -0.287367 -0.269418 0.185748 0.225889 -0.244155 0.203591 0.0428961 0.0711938 -0.14482 -0.216462 -0.149535 0.254219 0.223207 -0.249479 0.0790477 0.0518698 -0.113652 0.270227 0.118854 0.13968 -0.0679342 -0.0212034 0.0568961 0.170472 -0.048152 -0.239567 0.0963866 -0.144487 -0.253851 0.271713 -0.151766 0.271567 -0.144991 -0.131394 -0.131381 -0.249127 -0.164003 -0.17055 0.228872 -0.182731 -0.0487372 -0.00792685 0.212329 0.186364 -0.306262 0.0853917 0.0124101 -0.139544 0.247873 0.116162 0.231211 -0.1357 0.221237 -0.0798604 0.149235 -0.108206 0.0466778 -0.206345 0.0521051 -0.214531 -0.155076 0.133143 0.258319 0.145899 0.163178 -0.260481 0.264307 -0.1921 0.176202 -0.129014 -0.153004 -0.156972 0.215257 -0.154334 0.0384095 -0.0087006 0.264936 0.0309647 -0.0010574 -0.137538 0.24364 -0.126659 0.0216437 -0.1877 -0.268599 -0.130335 0.0301938 -0.0491676 -0.118391 -0.0555693 -0.103916 -0.0294977 0.254413 -0.163416 -0.14326 -0.170083 0.254204 -0.281559 0.105915 0.205445 -0.12718 -0.0348931 -0.266128 0.134778 -0.242745 -0.180441 0.265975 -0.0234488 -0.082174 0.181454 -0.157025 0.162932 0.121961 -0.197379 -0.0609436 -0.269741 0.203374 -0.163122 0.0532605 -0.270339 0.00926213 0.0882231 -0.203356 0.0294736 -0.130625 0.0085871 -0.098852 -0.0699759 0.0259069 -0.0725807 0.24953 -0.0931903 0.302603 0.121162 0.274879 -0.19181 0.270445 0.120826 0.0966848 -0.139486 -0.097296 -0.142783 -0.185244 0.139745 -0.132179 -0.0861067 -0.037921 -0.184525 0.0146116 0.0726954 -0.183231 0.0837792 0.295209 -0.0677443 -0.202493 0.226531 0.137552 -0.113344 -0.0995391 -0.175075 -0.148637 -0.216632 -0.0474171 0.0702735 0.0670035 0.0496471 -0.244269 0.116863 0.141621 -0.0148596 -0.111412 -0.0894997 -0.0276318 0.254973 0.0487828 -0.0223204 -0.0661881 -0.0695159 -0.250518 -0.1791 0.269969 0.0638191 -0.168612 0.0409546 -0.0815469 0.178178 0.0047034 -0.28004 0.250014 0.04899 0.159162 -0.218478 0.23511 0.0908694 0.176985 0.221161 -0.0949042 -0.169116 -0.212672 0.0332192 -0.080356 -0.0598121 0.0292507 -0.229431 -0.0246715 -0.116707 0.274377 0.195969 -0.260621 -0.218163 -0.105885 0.201199 0.0223952 0.0252215 0.0885921 -0.134748 -0.124656 -0.123905 0.159386 0.153266 -0.273512 -0.227486 -0.148344 -0.235559 0.242107 -0.0631919 0.119415 0.112445 -0.170344 -0.104471 0.140623 -0.267856 0.073354 0.0893977 0.0373658 -0.222011 0.00107781 0.201781 0.229938 0.235646 0.266032 0.133051 -0.0444857 -0.179345 -0.208409 0.0318107 0.00230841 -0.17909 0.0141543 0.188556 -0.154409 0.167263 0.172707 0.0708823 -0.0617848 -0.161453 0.00416461 -0.038129 -0.246615 -0.282755 0.122215 0.0232047 0.240579 -0.119725 0.228828 0.0900677 -0.278111 -0.201704 -0.0742692 0.000993507 0.173682 0.239698 -0.0838056 -0.18108 -0.184602 -0.190595 -0.0617482 0.202425 -0.156162 -0.07211 0.00844328 0.0362693 -0.133241 -0.13032 0.0601422 0.0709443 0.0526009 0.075633 -0.189539 0.184567 0.116639 -0.0992735 -0.146989 -0.251588 0.107583 0.117403 0.124321 -0.285026 0.235119 0.171416 -0.264466 -0.0220836 -0.147778 -0.0322255 -0.270064 0.181262 0.0109562 -0.149196 0.197258 0.0639926 -0.0737993 0.283621 -0.0980533 -0.00430119 0.160453 -0.234243 -0.219124 0.190934 -0.0666927 -0.25915 -0.206554 -0.114044 -0.134262 -0.172472 0.0260216 -0.0566019 -0.101528 0.173319 -0.0132313 -0.169315 0.0144544 -0.282092 -0.030575 0.145494 0.0667042 0.202047 -0.136616 -0.140392 0.0813022 0.226764 0.272709 -0.177652 0.180972 -0.178239 -0.0769301 0.18711 0.0684015 0.229528 -0.0604692 0.2596 -0.152218 0.163802 0.218616 0.118011 -0.112037 0.00785471 0.280003 -0.0543377 0.175524 0.0715133 -0.170145 -0.0460374 0.0109745 0.109732 0.112211 -0.0503026 0.19673 -0.195792 0.217662 
0.211278 -0.0084694 -0.208723 0.0797713 -0.229383 0.272774 0.178333 -0.168284 0.0212756 0.216352 0.123572 -0.251978 0.0836831 0.10098 -0.0338113 -0.0259017 0.142499 -0.159203 -0.085432 -0.205912 -0.22851 0.111955 0.0182317 -0.185507 -0.133122 0.240073 0.0534821 0.0186475 0.269291 0.179094 0.00948411 0.0420357 0.0737306 0.201201 -0.180676 0.167278 0.101258 -0.110823 0.0259071 -0.26883 -0.212879 0.265271 -0.272599 -0.240404 0.246689 0.113327 0.181759 -0.0567345 0.199227 0.0625588 0.0590372 -0.243985 0.126462 -0.056862 0.128845 0.096218 -0.188545 -0.266712 0.043517 0.0828093 0.00757802 -0.0864811 -0.209452 0.109646 0.207959 0.127567 -0.028195 0.151289 0.0839347 -0.0908053 0.0707764 0.279416 -0.243989 0.00536128 0.0900808 -0.166443 0.276728 0.198744 -0.205617 -0.0207438 -0.203638 -0.0942114 -0.0186438 -0.271614 -0.0661032 -0.173651 0.118075 -0.0121331 0.00488579 0.172565 0.155649 -0.214504 -0.0236937 -0.26401 0.241037 -0.0414539 -0.259943 -0.0819787 -0.0787982 0.29084 -0.109664 0.120639 -0.0877814 -0.218898 -0.25923 -0.193807 -0.277905 -0.07945 -0.154205 -0.0518223 -0.0501592 0.184142 0.26133 -0.0772426 0.169467 0.160359 -0.276151 0.185151 0.225498 0.205099 0.0512616 0.120531 0.251198 -0.236428 -0.243473 0.304977 -0.23636 -0.00205812 -0.0314077 0.212364 -0.281608 0.196548 -0.133592 -0.0678355 0.219858 0.0477442 -0.178013 -0.207851 0.219797 0.113643 -0.221674 -0.0603964 0.168254 0.0677015 0.205013 0.222445 -0.0765288 -0.0543543 0.226471 -0.0078218 -0.124926 -0.0754115 0.164576 -0.210257 0.093811 0.137693 0.193206 -0.199452 -0.040909 -0.287869 0.00616933 -0.0612646 0.0464932 0.035463 -0.246515 -0.0600476 0.10895 0.0549993 -0.167905 0.266011 0.0308122 -0.212543 0.0922192 0.00636126 -0.0415472 0.264794 -0.100923 0.0293306 0.263008 -0.0629213 -0.139819 0.278411 -0.178493 -0.0489135 0.293161 -0.0899897 -0.141087 -0.204541 0.00882314 0.191972 0.174384 -0.256486 -0.0616234 0.129439 0.282298 -0.021958 0.120686 0.00415912 -0.0808557 0.202554 0.120633 0.222026 -0.0310544 0.274034 0.234663 -0.0456135 -0.0660731 -0.0956706 -0.0786915 0.319526 -0.0679823 -0.086367 0.129714 0.138739 0.248388 0.194479 -0.0574685 -0.0979098 0.0199428 -0.208024 -0.133482 0.066874 0.159603 -0.0293153 0.00531653 -0.0278165 -0.025667 0.277383 0.0727846 -0.00254007 0.156832 0.0353668 0.232931 0.0972221 -0.00232783 0.285247 -0.0480393 0.103339 -0.110519 0.278772 0.111104 -0.107918 -0.0959588 -0.000552327 0.108516 -0.142122 -0.242117 0.106435 0.105414 0.0400574 0.0461412 -0.04179 0.265867 -0.0864801 0.233861 0.280982 -0.146539 0.237478 -0.00418657 -0.199615 0.0315711 0.254638 0.118997 -0.021249 0.294898 -0.0537473 0.0563173 -0.260133 -0.0823396 -0.18032 0.145505 0.138464 -0.046779 0.0456002 -0.0777664 0.034757 0.058701 0.187267 0.0606711 -0.0302144 -0.138306 -0.135768 0.135562 -0.202155 -0.236361 -0.103699 0.226508 0.0691671 0.018354 0.0234832 -0.148007 -0.203442 0.0477608 -0.0662209 -0.223365 -0.20059 0.176983 -0.148624 -0.000154421 -0.225479 0.14389 0.282595 0.0603846 0.224941 0.0326057 0.146766 -0.177709 -0.26768 -0.212563 0.175176 0.199245 0.238791 0.273417 0.0304629 0.205131 -0.121107 0.215013 0.249512 -0.231763 0.228312 0.0939657 -0.0773266 0.118067 -0.255519 -0.219902 -0.0856284 -0.224318 -0.0268589 -0.205325 0.189404 0.0511037 -0.0270383 0.225921 0.174459 0.230151 -0.159454 -0.0989375 -0.176526 -0.116023 0.172016 -0.0205153 -0.0505498 -0.139751 -0.162157 -0.191988 -0.047448 0.0183574 0.197754 -0.324566 -0.00199172 -0.252707 0.124647 0.0862093 0.158692 -0.0133005 0.0943257 -0.0556411 0.124451 -0.0680912 -0.225898 0.208867 -0.112974 0.143702 0.272562 -0.23898 -0.216924 0.263058 -0.165676 0.134687 0.118069 -0.0670688 -0.036182 -0.265782 -0.0498282 0.0209575 0.241896 0.188547 0.114426 -0.0295685 0.229565 -0.0271259 -0.0653625 -0.255982 -0.232512 0.278909 0.00212056 -0.24669 0.131192 -0.124218 -0.235763 0.187751 -0.0339697 0.170233 -0.0143901 -0.260557 0.103232 0.012675 -0.0644967 -0.099127 0.158789 0.256746 0.1201 0.23802 -0.183125 -0.0367396 -0.0401017 -0.235423 0.162426 -0.0646739 0.148022 -0.244399 0.181398 -0.0187261 0.0607563 -0.0956919 -0.117685 -0.218498 0.266767 -0.212158 0.179287 0.0742493 0.138354 -0.0223017 0.0812577 0.227194 0.00938801 0.24472 0.106917 -0.161157 0.038546 -0.127109 -0.0320513 0.282363 -0.208319 0.288127 0.118349 0.21783 0.0628346 -0.0832965 -0.129195 -0.204119 -0.0872445 -0.012654 -0.202478 -0.280238 0.0881653 0.15418 0.248929 -0.040344 -0.262096 -0.0621634 0.273425 0.253728 -0.0019884 -0.207772 0.0485448 0.0842571 0.165199 0.158444 0.228519 0.231577 0.206788 0.168841 0.0728467 0.196022 0.202335 -0.0603172 0.195687 -0.123936 -0.24336 -0.109475 -0.0563514 -0.0688634 0.00147735 0.142409 -0.0507104 -0.209624 0.1165 -0.198817 0.255485 -0.0737211 -0.119787 0.211817 -0.20838 0.271626 -0.24142 0.310924 0.311365 -0.0019357 0.249559 0.217247 -0.11587 -0.188336 -0.279709 -0.182332 0.129009 -0.298068 0.15564 0.104689 0.192587 -0.218604 0.0733525 -0.1543 -0.0606725 -0.0726924 0.0155471 0.0483974 -0.231314 0.170103 0.0773098 -0.251307 0.0403928 0.213527 0.201848 0.232205 0.0967797 -0.194135 -0.241425 -0.0160913 0.278499 -0.0435249 -0.0203067 0.134427 0.103856 0.0939364 -0.210415 0.163077 0.107533 0.12024 0.160371 -0.172803 -0.0332185 0.184654 0.139089 -0.249001 -0.0469611 -0.0518207 -0.00335709 0.169357 0.242056 -0.0813957 0.0232549 -0.0155041 -0.194682 -0.149186 0.209758 -0.213303 0.147845 -0.136792 0.273515 -0.241277 -0.00892414 -0.0800944 0.19849 0.215782 0.11225 0.00691498 0.0659622 0.157256 -0.0315197 -0.103089 0.116415 0.184996 -0.0960409 -0.20791 -0.237135 -0.184058 -0.000387805 0.136399 0.0191203 -0.0547919 0.141631 0.149171 0.156813 -0.250594 -0.206571 0.0542471 0.0854157 -0.0818671 0.0273659 -0.273178 0.218593 0.107974 -0.253535 0.0786382 0.093302 0.0661181 -0.280969 -0.23205 0.000207818 -0.179455 0.0697079 0.0644299 -0.22197 0.0776734 -0.0876372 0.279153 0.0647801 -0.139847 -0.097107 0.219971 -0.232767 0.0707882 -0.0684641 0.2454 0.254095 -0.137862 -0.0992363 -0.225657 -0.11236 -0.263664 0.0370702 -0.164287 -0.275438 0.161579 0.159987 0.0775927 -0.167337 0.119213 -0.267864 0.241264 -0.0174184 0.170499 -0.271667 0.0252249 -0.137859 -0.113776 0.170425 -0.106386 0.236387 -0.165563 0.0677919 -0.194476 -0.0249504 0.214896 -0.160082 0.229913 -0.192519 -0.272721 0.201142 0.00633495 -0.228334 -0.124885 -0.185619 0.0291013 0.114484 0.185605 -0.024601 -0.119981 -0.0731733 -0.113335 0.0596383 -0.279275 -0.110421 0.264018 -0.0487838 -0.0835213 0.212611 -0.119914 -0.141937 -0.0405337 0.246389 -0.0588761 0.0839769 0.235989 -0.0494548 -0.212151 -0.114656 -0.158952 0.121741 -0.121444 0.0407033 -0.172933 0.221496 0.248703 -0.0998668 0.00439625 0.0485086 0.230095 -0.101857 -0.0202689 0.19829 0.0514251 -0.0273461 0.178678 -0.0585731 0.245329 -0.175418 -0.255889 -0.220669 -0.0341309 0.044696 -0.1745 0.207581 -0.0319572 -0.281739 0.183467 0.174239 0.254904 0.185543 0.180506 -0.0643782 0.0343009 0.0356949 -0.109187 -0.249621 -0.0857691 -0.0465259 -0.133681 -0.0364079 0.210883 0.0571781 0.00605242 -0.229437 0.193976 0.0225709 -0.160196 -0.080212 0.140598 -0.132759 -0.0109201 -0.0249281 0.239302 -0.26025 0.0124544 -0.0358906 0.10072 -0.183147 0.0270527 -0.176928 -0.122162 -0.160924 0.014886 0.153023 -0.208058 -0.22572 0.120666 0.0503856 0.14482 0.272727 0.23712 0.0943418 -0.12685 -0.175327 0.0606023 0.0182675 -0.219642 -0.210206 0.0785551 -0.00439596 -0.0450774 0.125446 -0.13438 -0.216126 -0.106276 0.00651324 0.00559965 -0.221096 0.0836306 -0.191363 -0.0332916 0.138049 -0.131256 -0.275037 -0.140531 -0.126454 -0.193037 0.249828 -0.102007 -0.124062 -0.179507 0.0908003 0.191201 -0.110906 -0.163544 -0.0653805 0.274974 0.176179 -0.164383 -0.26912 0.0638022 0.128798 0.158527 0.167495 
-0.0162073 0.247076 0.242949 -0.0141201 -0.192679 -0.11605 -0.188247 -0.199692 0.0962748 -0.143373 -0.042052 -0.265429 -0.038674 0.166253 0.268417 0.256994 0.0232753 -0.115562 -0.0560376 0.0799158 0.216293 -0.253237 0.0113782 0.117786 0.0192314 0.193435 0.228043 -0.207909 -0.273073 0.0172951 0.216736 0.196157 -0.134903 0.245249 0.053341 0.180926 -0.202408 -0.0512316 0.0811009 -0.22575 -0.0366454 -0.169931 0.259413 -0.0156179 0.0555867 0.0694885 0.18181 0.0549052 -0.231218 0.0638905 -0.0911332 -0.186821 -0.0169041 0.0809156 0.258552 -0.213323 -0.241423 0.209483 0.198411 -0.0379891 -0.278969 -0.0599624 0.209752 0.122227 -0.192896 -0.264423 -0.139875 0.0909228 -0.283301 0.00606254 -0.0376063 0.176073 -0.275807 -0.00966649 0.183941 0.0451979 -0.0635052 -0.2141 0.236024 -0.280888 0.0705741 0.229121 -0.179908 -0.262915 -0.129253 0.21225 -0.178184 0.100318 0.279081 -0.159773 -0.0939061 -0.190791 0.274643 -0.258944 -0.108039 -0.0105428 0.183666 0.241861 -0.275373 0.0914025 0.217762 -0.232001 -0.0435015 0.229803 -0.218131 -0.0280918 -0.282599 -0.247787 -0.19148 -0.0244352 -0.22751 0.242116 -0.109673 -0.0368025 -0.0773883 -0.0501129 -0.0101808 0.123414 0.281371 0.0907438 -0.0275046 -0.146472 0.143525 0.281697 -0.042788 0.296484 0.135288 -0.18889 0.197903 0.037314 0.164889 -0.17344 -0.222957 0.0775893 -0.0515065 -0.100986 -0.104752 -0.267768 0.224358 -0.146394 0.21772 0.174462 -0.188657 -0.246973 -0.218194 0.0829399 0.0839193 0.147464 0.094108 -0.0884133 -0.0207089 0.0436447 -0.155722 -0.153083 -0.151006 0.302982 -0.0191409 -0.216127 0.0901768 0.240043 0.1663 -0.0538882 -0.124909 0.23605 -0.014036 0.156331 0.191395 0.161367 -0.0137979 0.0508658 -0.218917 -0.186777 0.0956658 -0.0349224 0.182961 0.259431 0.155447 -0.0506187 0.132829 0.282856 0.140546 -0.176819 -0.0437992 -0.186096 0.0494875 -0.25107 -0.0412238 -0.0146052 -0.140477 -0.183341 0.185302 -0.152389 0.146508 0.147757 -0.262522 0.114553 -0.247683 0.235971 -0.204925 -0.0369763 -0.116389 0.0833033 -0.00696173 0.0709165 -0.265691 0.279882 0.0777007 0.222961 0.275404 -0.229064 0.0217058 0.17312 -0.24209 0.283706 -0.187619 0.0511928 -0.248052 0.012042 -0.033915 0.241592 -0.288974 0.22128 -0.0941871 0.196747 -0.204513 0.0950675 0.0405641 0.0448515 -0.252065 0.155469 -0.118143 0.221058 0.27256 -0.097428 0.0411507 -0.0748885 -0.283952 -0.276449 -0.101326 -0.0142731 -0.179941 -0.0538746 0.232524 0.242707 -0.114112 0.198827 -0.134866 -0.100506 0.167918 -0.189848 0.121821 0.0152391 0.0131212 -0.143278 -0.0386943 0.274644 -0.218507 0.237802 -0.104098 -0.271693 0.252593 -0.281993 -0.170259 0.0830517 0.0836578 0.00204461 0.168967 -0.221806 0.209763 -0.198432 0.21741 -0.135018 0.227472 0.131341 0.153499 0.181027 -0.153354 0.237936 0.168037 0.15248 0.187823 0.129084 -0.0670513 0.27852 0.237173 -0.0500165 0.0595041 0.122143 -0.073533 -0.0555895 -0.135697 0.00395963 -0.317509 0.114214 0.049992 0.160671 0.0438127 -0.0212349 -0.175323 0.210445 -0.224078 -0.269943 -0.0709501 0.173069 -0.0162037 -0.280219 0.0555835 -0.0510415 -0.0794672 -0.0534026 -0.0271713 -0.0937983 -0.0296515 -0.0169453 -0.189508 0.0130569 -0.157547 -0.220243 0.0784109 -0.287996 -0.102755 0.0308554 0.188248 0.217704 -0.00053931 -0.10844 0.164653 0.0741851 -0.138175 -0.155311 -0.0808959 0.00268589 -0.173502 0.125976 0.0119542 -0.0234844 0.00427099 -0.100269 0.213654 -0.000873599 -0.0644718 0.135137 -0.195234 0.0333688 -0.141467 0.0121395 -0.0575311 0.0887856 -0.00786077 -0.0670507 -0.185105 -0.0156024 -0.236813 -0.266726 -0.161265 -0.202914 -0.132864 0.258678 -0.143827 -0.155938 -0.178753 0.0696415 0.194232 0.191597 -0.221902 -0.257456 0.250002 -0.162061 0.20767 0.0406341 0.102781 -0.179155 0.243201 -0.00363824 -0.191529 -0.131039 0.120489 -0.238038 0.0350491 0.0830531 0.0268713 -0.259193 -0.0262291 -0.0160265 0.00789053 0.0936227 0.0321648 -0.129896 -0.0463656 -0.26432 0.114962 0.095048 0.115024 0.155902 0.0017682 0.235786 -0.213371 0.191977 0.198075 -0.178534 0.286236 -0.154858 -0.135709 0.169612 -0.220264 -0.0504808 0.163857 0.07877 -0.238715 -0.0420378 -0.160586 0.00767984 -0.0245135 0.225675 -0.0303012 0.116379 -0.264967 -0.14744 0.0973672 0.131326 -0.183679 -0.127892 0.249374 0.132809 0.129396 -0.149176 -0.271194 0.206312 -0.148705 -0.126124 -0.18692 0.0857968 0.251846 -0.0623344 -0.174052 -0.238213 0.174258 -0.0997772 0.153902 0.0149116 0.206819 0.0427143 -0.174477 0.132847 -0.282808 0.151996 0.180897 0.174889 -0.0939635 -0.187027 0.194077 -0.142505 -0.230207 -0.1819 0.256047 0.287812 0.155707 -0.19846 0.310188 0.181148 -0.214452 -0.161149 0.0229627 0.075997 -0.0151057 0.00100704 0.270333 -0.210415 -0.0171629 0.211069 0.220614 -0.0394401 -0.0617054 -0.0641751 0.210913 0.0504216 0.132561 -0.259296 0.0307914 -0.0444756 -0.274618 -0.14322 0.0595429 -0.16323 -0.156064 0.0234473 0.166974 0.29806 0.199947 -0.106909 0.0265804 -0.124742 0.28418 -0.186845 -0.253093 -0.0308112 -0.252038 0.181543 0.00600277 0.234404 0.0731316 -0.104335 0.240524 0.214714 0.198257 0.198928 0.255272 -0.233586 -0.22794 0.216354 -0.0578975 -0.0266648 0.0833082 -0.0221592 -0.100891 -0.233388 0.0996532 -0.0431628 -0.0376086 0.200249 0.0250966 -0.147051 0.0379048 -0.23771 0.198541 -0.0306635 0.263568 -0.224109 -0.0808809 -0.157632 0.00363961 0.156674 -0.0294196 0.0384439 -0.0517276 0.174572 0.274611 0.149596 -0.180806 0.0407413 0.0265904 -0.0544085 0.147472 -0.303757 -0.190707 0.0255173 -0.0236991 -0.124478 -0.104678 0.0688081 0.0897955 0.0269731 -0.0432549 0.221743 -0.0691529 0.0118553 -0.181645 -0.107931 0.0130824 -0.180262 -0.0187023 0.2737 0.223296 0.0775285 0.0518272 0.183412 -0.253895 0.190454 0.277462 -0.201235 0.206646 -0.211884 -0.158758 0.20739 -0.100783 0.19377 -0.0894378 -0.000121609 0.0629615 -0.0693628 -0.0211477 -0.234824 -0.0636275 0.113962 -0.256494 -0.113293 0.219091 -0.200169 -0.162006 -0.156929 0.223489 -0.192221 -0.191836 0.253438 0.244991 0.121976 0.213044 0.264935 -0.0971025 -0.00311798 0.068063 0.235803 -0.247211 -0.0357136 0.185568 -0.282683 0.245554 -0.246261 0.154266 -0.253994 -0.0891514 -0.136083 -0.000795313 0.273453 -0.270157 0.271702 0.259078 0.110263 0.111061 0.278146 0.254563 0.0836693 -0.2319 0.0738249 0.0789757 -0.0434393 -0.0171911 0.0930872 -0.0467694 -0.231409 -0.251426 0.230263 0.0949876 -0.286477 0.178538 -0.248447 -0.252618 0.202772 0.151602 -0.0157149 -0.220823 -0.206947 -0.00734212 0.146741 -0.204778 -0.0812984 -0.0760178 -0.195252 0.12294 0.0675758 -0.0660051 -0.111671 -0.202302 0.00355439 0.0912798 -0.0182825 0.0226015 -0.161394 0.104562 0.255601 -0.147714 0.0917682 -0.0522313 0.0121929 -0.152046 -0.0602955 -0.173639 -0.257617 -0.209243 -0.00222982 -0.162156 0.207092 0.117956 0.266607 0.0583046 -0.227196 0.0564812 -0.0795458 0.153159 0.113817 0.0617913 0.0409049 -0.257286 0.0607962 -0.119139 0.13808 -0.0561876 0.18993 -0.131451 0.16886 -0.0326558 0.264637 -0.162001 -0.07137 -0.117287 -0.254946 -0.241384 0.00481087 -0.190576 0.182545 0.186168 -0.00222728 0.220976 0.17108 -0.0213192 0.19401 -0.173977 0.0526049 0.27063 -0.287771 0.232733 0.0113824 -0.100607 0.0640783 -0.145578 -0.0576015 -0.0864781 -0.00465466 0.257446 -0.0355134 0.00672769 -0.138111 -0.0969113 0.111051 -0.282727 0.0701047 -0.0393255 0.0146376 -0.132145 -0.26769 -0.219703 0.0170086 -0.157112 -0.00913187 -0.21765 -0.12455 0.0301326 -0.229235 -0.276477 0.0243871 0.119226 -0.202488 0.123794 -0.277339 -0.0804024 -0.207444 0.177221 0.229245 0.238209 -0.262681 0.0455383 -0.281901 0.183162 -0.0809327 0.134548 0.0305665 0.1867 0.0480644 -0.188665 0.0415053 0.0421755 0.158091 -0.0843697 -0.155639 -0.0633964 -0.204652 0.158061 0.106282 0.201603 -0.208857 0.114131 -0.0903611 0.087911 -0.185682 0.103728 0.249371 -0.264082 -0.133568 -0.0661547 0.195413 0.0707554 -0.175013 0.0729166 -0.0599168 
0.256455 0.223427 -0.189218 0.0597856 0.211081 0.0202036 -0.198867 -0.0785248 -0.000794113 -0.218349 0.0763772 0.0495981 -0.145945 0.006578 0.267553 -0.173272 0.198595 0.202978 0.00538582 0.0941592 -0.050318 -0.131748 -0.284123 -0.0612331 -0.212829 -0.242265 -0.16955 0.186685 -0.117354 0.231929 -0.135748 0.184737 0.11748 0.198703 0.139034 0.0538389 0.260439 -0.0129627 0.139944 -0.191548 -0.223263 -0.137095 0.18049 0.228796 -0.117469 0.102346 0.0959776 0.202566 -0.182187 0.00101769 -0.262549 -0.24929 0.192063 0.136941 -0.247353 0.143326 -0.136378 -0.211121 -0.242605 0.0136725 0.0571437 0.00593151 -0.204293 -0.1863 -0.167642 -0.0711497 -0.135878 -0.161593 -0.0339114 -0.272706 -0.0938582 0.159245 0.0685032 -0.225547 -0.0617582 0.202794 0.240534 -0.124663 -0.161729 0.0969485 -0.129493 -0.0336909 0.0390418 0.270375 0.0344229 0.0815606 -0.0933973 -0.0426058 -0.0263421 -0.109438 -0.101528 -0.00354403 -0.193068 0.0671144 -0.0734618 0.122824 -0.061817 -0.00244903 0.220019 0.203723 0.215527 -0.0759241 -0.257326 0.197723 0.0825349 -0.118431 -0.133145 -0.258624 -0.243947 -0.191596 -0.139752 0.251124 -0.117028 0.245351 0.269372 -0.209238 -0.195758 0.184359 -0.0546269 0.211907 0.0636476 -0.11224 0.0112326 0.113246 -0.0156652 -0.259158 0.10872 0.131109 -0.155597 0.175391 -0.245908 0.117141 -0.273208 0.258452 -0.273748 -0.28019 -0.0972145 0.18631 0.0853135 -0.0713864 0.216678 0.181424 -0.102121 -0.00186961 -0.0963622 -0.160313 0.0258716 -0.212067 -0.230228 0.206435 0.245342 0.198424 0.276289 0.0673261 -0.155493 0.150947 -0.0996969 -0.101525 -0.0448924 0.0242117 -0.193316 0.225109 -0.198448 -0.150778 0.0755824 -0.0999639 -0.0416152 -0.272657 0.174544 -0.266678 -0.279689 0.219845 -0.149938 -0.0372365 0.209024 -0.219941 0.0302897 0.150847 0.0905303 0.278994 0.146321 -0.141181 0.114302 -0.155803 0.265198 -0.241976 0.00976685 0.0510423 0.0411793 -0.0202913 -0.218363 0.200652 -0.168043 0.180445 0.25928 -0.197551 0.0887298 0.0632933 -0.209213 0.260881 -0.237122 0.154068 -0.0303555 0.164547 -0.00630456 0.000638013 0.132802 -0.132952 -0.140039 -0.0224592 -0.103615 -0.108451 0.132978 0.00294291 0.00749746 -0.071571 0.0980569 -0.205591 -0.17617 0.248705 0.00655151 -0.0353169 -0.20002 -0.0710374 -0.269718 0.262888 0.131474 0.255932 -0.236197 0.101014 -0.202953 -0.0146132 0.250902 -0.220566 -0.0788986 0.154687 -0.24293 0.26503 -0.0562417 -0.0839098 -0.17125 -0.0704159 -0.236618 -0.184132 0.233317 0.0619435 -0.0434103 0.100063 0.270341 -0.282097 0.271271 -0.234261 0.0608237 0.126457 0.0414951 -0.0602831 -0.279832 -0.241387 0.0853683 -0.0638816 0.2041 -0.0929639 0.00962325 0.248039 -0.0740425 -0.0962268 -0.226034 -0.158569 0.0414663 -0.187388 0.0429921 0.246767 -0.0709499 0.26729 -0.265719 0.181876 0.21067 -0.277427 -0.0698467 -0.00144088 0.23664 -0.00195576 -0.185077 -0.0557414 0.216985 0.281489 -0.0612666 0.150262 0.270744 0.0557359 -0.0840369 0.160964 -0.240431 -0.26225 0.135084 0.159442 -0.0206163 0.122243 0.0721824 -0.149878 -0.10636 0.184315 0.0906263 0.128649 0.248062 -0.167635 -0.195302 -0.195443 -0.24052 -0.052542 -0.258899 0.203502 0.105904 -0.0227247 0.0713078 0.170051 0.214572 -0.0683755 0.133852 0.20865 0.195958 -0.210869 0.220024 0.0121553 -0.222052 -0.223286 0.0673115 -0.115222 -0.227789 -0.0454049 0.130484 0.165243 -0.0123293 0.267054 -0.0559407 -0.0752008 -0.275089 -0.27926 0.266523 0.243009 0.0437753 -0.147675 -0.0787326 0.108691 -0.157558 0.250668 0.201237 0.283767 -0.142211 -0.163756 -0.118173 -0.033612 -0.134373 -0.210767 0.267611 0.102109 -0.120111 0.288354 0.0120044 0.096616 -0.217444 0.0657805 0.0526478 -0.22796 -0.0183092 -0.109275 0.169909 -0.0284104 -0.037685 -0.27599 -0.0481864 0.154055 -0.0911492 0.121265 0.269383 0.119873 0.238632 -0.0144143 -0.0526639 0.031047 0.107235 0.256813 -0.123577 -0.267717 -0.114854 0.0986561 -0.143611 0.0915122 0.243466 -0.0715695 0.224518 -0.242801 0.236223 -0.130628 0.269038 -0.183449 0.24773 -0.00981403 0.242052 0.267109 -0.0396797 -0.0462124 0.123185 0.124373 -0.0786083 -0.219964 0.0142796 -0.10517 -0.0499999 0.188087 0.156934 0.120507 -0.216599 -0.0309693 0.191495 -0.127826 -0.0903796 -0.178602 0.10778 -0.206353 0.104394 -0.23887 -0.193724 0.24063 0.0829242 0.0368092 0.165561 -0.212691 -0.224864 -0.16064 0.0213681 -0.256754 0.0331182 -0.0550157 -0.199512 0.0367875 0.19201 0.0897386 0.192255 0.157271 -0.0386935 0.0938387 0.269357 -0.273805 0.252603 0.00431354 -0.0991668 -0.212176 -0.265211 -0.166261 0.11003 -0.112927 -0.181295 -0.0747467 0.191563 0.14286 -0.248756 -0.121502 0.204609 -0.197458 -0.253995 0.0603316 -0.25995 0.26566 0.140288 -0.0972064 0.18207 0.126736 -0.184288 0.29156 0.143023 0.0524543 0.175994 -0.0442737 -0.159419 -0.2228 0.158953 0.168399 0.194449 0.0850092 -0.22146 0.175898 -0.0477098 -0.203772 0.288609 -0.0658374 -0.0636341 0.0310816 0.0185213 0.0290544 -0.192803 0.167473 0.0990379 0.00249893 0.0953973 0.0789263 0.187143 0.193707 0.24664 0.168093 -0.01599 0.232014 -0.107239 -0.0224356 0.20997 0.162401 -0.214506 0.0691496 -0.066522 -0.0128926 0.198617 -0.0740036 -0.0279104 0.265016 0.117672 0.0491503 -0.0973952 0.133391 0.148735 -0.0659221 0.135856 0.130125 0.258175 0.249279 0.275898 0.00383946 0.0888681 0.231291 0.0169971 -0.172287 0.198575 -0.153913 0.179329 -0.0825846 -0.260727 -0.157836 -0.267076 -0.128786 -0.0747302 0.183531 0.167943 0.269617 0.0833578 0.115769 0.0336238 -0.0609309 0.0352529 -0.215327 -0.0303189 0.160502 0.0910997 -0.127527 0.282211 0.0414695 0.122398 0.0251498 0.130129 -0.214292 -0.249545 -0.078461 0.116475 0.105297 -0.0611361 -0.167019 0.25908 0.145122 0.13969 -0.0456399 0.23177 -0.27844 -0.12236 0.140023 -0.050554 0.160906 0.00910706 -0.0738143 0.0504762 0.167979 -0.251571 -0.108857 0.222297 0.171881 -0.0466015 0.0707273 0.2075 0.271096 0.0204837 0.223172 0.200252 0.132587 -0.235947 0.235795 -0.0813692 0.243152 0.145189 -0.199501 0.0442742 0.134006 -0.261235 0.206242 0.0939218 -0.128071 0.108101 0.0299688 0.244939 -0.0158644 -0.224564 0.263278 -0.0387049 -0.199877 0.00475471 0.0768125 -0.191644 -0.079431 -0.148681 -0.247563 -0.0545862 0.276829 -0.0924804 -0.0972851 -0.0457375 -0.0790566 0.0187255 -0.24574 0.0801257 0.00232894 -0.0105098 0.0698315 -0.0188928 0.0882006 -0.0942269 -0.213485 0.17256 0.0753966 -0.145842 -0.129369 -0.0890623 -0.226478 0.000486514 0.256911 -0.0640063 0.233188 0.184011 -0.259641 -0.213368 0.196357 0.116545 -0.12864 -0.22373 -0.0398571 0.000739996 -0.10152 -0.243943 -0.284486 -0.225184 0.138375 0.230105 0.0851385 0.0663836 -0.234193 0.0532797 -0.103619 0.0139499 -0.176868 -0.108138 0.187221 -0.193983 0.0150018 -0.049335 -0.193713 -0.143889 0.199118 0.0312123 -0.0930201 -0.0382979 0.197202 -0.226974 -0.00443157 -0.0926478 0.24861 0.174652 -0.274459 -0.219008 0.00222747 0.228116 0.129384 -0.146866 -0.045291 0.25861 -0.027275 0.199904 -0.248139 0.00682733 0.0959895 -0.136958 0.221205 -0.144492 0.0435389 -0.101086 0.149582 -0.0848902 0.256058 -0.204804 -0.092786 -0.170087 -0.135957 0.131 0.126203 0.0422355 -0.0400427 0.250367 -0.11832 -0.22969 -0.281595 -0.150603 0.20055 0.077548 -0.25249 0.236685 -0.125582 0.254093 0.198092 -0.0187134 -0.262572 -0.104189 0.243264 -0.119194 -0.188399 -0.138955 0.0632439 0.0441791 0.148819 0.199733 -0.247503 0.211852 0.123884 -0.2069 0.150263 0.181663 0.0749317 -0.219797 -0.0847437 0.0366778 -0.0679419 -0.0521008 0.089583 -0.0117858 0.034447 -0.0900757 -0.240378 0.280359 -0.0885524 -0.0310187 -0.135583 -0.168654 0.0967882 -0.223332 -0.0743991 -0.00391519 0.232809 0.191786 -0.225256 -0.258095 -0.0446131 0.256653 -0.115005 -0.186811 -0.260351 0.0318637 -0.0225437 0.119213 0.213116 -0.185514 0.255759 0.0379197 0.163242 0.126457 0.140699 -0.197911 0.227312 0.0734995 -0.206575 0.212797 0.255624 
-0.146769 0.0399435 0.187544 0.0371449 0.12327 0.114377 0.057233 0.0461402 0.00457489 0.104839 0.0545489 -0.276104 -0.169706 -0.251816 -0.277237 -0.11053 0.158851 0.228096 0.077733 0.117657 0.245611 -0.0237135 -0.0977539 -0.184393 0.181146 -0.254006 0.171252 0.0568963 -0.232042 0.207893 -0.264438 0.0602704 0.197407 -0.1504 -0.272819 -0.0530002 -0.0211717 0.0611497 -0.138118 0.156923 0.0388295 0.0238542 0.0225537 -0.172542 0.00641064 0.208252 -0.0407417 0.0417954 -0.244339 0.115465 -0.116927 -0.220275 0.240424 -0.121087 -0.182611 -0.190725 -0.199949 -0.279088 -0.180721 -0.257583 0.209162 0.186453 0.284345 -0.0236012 0.157259 0.00271026 -0.233581 -0.263085 0.104472 0.174607 -0.0702905 0.0606301 -0.256233 0.0816459 -0.199353 0.0367616 0.165831 -0.0411148 0.197337 -0.219109 0.238716 0.24396 -0.191472 -0.0657215 -0.258 0.0548607 -0.283293 -0.0340307 -0.248406 0.131958 0.039294 0.205263 -0.160287 0.171402 0.267921 -0.046382 -0.152922 -0.121925 0.156164 -0.254711 0.0120362 0.0704955 0.213029 0.107966 -0.0745566 0.262462 0.144702 -0.223066 0.126545 -0.0319538 0.123298 -0.0508909 0.0537985 -0.0544545 -0.110216 -0.239794 0.118996 0.0220815 -0.0145125 0.232213 0.157032 0.20711 -0.0428549 -0.188187 -0.216505 0.167001 -0.233294 0.124638 0.237955 -0.0978404 0.199984 0.147671 0.0149557 -0.230312 0.215154 -0.0717031 -0.0528708 0.271521 -0.0106917 -0.207828 -0.184969 -0.201857 0.272941 -0.032704 0.152785 0.223458 0.17737 -0.0438302 -0.290982 0.0384399 -0.0664557 -0.0120839 0.139895 0.154232 -0.166943 0.0466548 0.244695 -0.251705 -0.263631 -0.272357 0.163206 -0.141831 0.158457 -0.0384511 0.231686 0.140358 -0.1028 -0.20924 -0.233984 -0.0728182 -0.159906 0.257878 -0.0813216 -0.0410427 0.115486 -0.289366 -0.228302 0.25538 -0.0809817 0.116442 -0.143971 0.154453 -0.25693 -0.182012 -0.218862 -0.196579 -0.119455 0.264745 0.100486 -0.210178 0.0365815 0.122994 -0.00241083 -0.215739 -0.000581631 0.210065 0.132811 -0.0789398 -0.129181 -0.190824 -0.123228 -0.132824 -0.0823928 0.116694 -0.1139 -0.173185 -0.230944 -0.24784 0.162333 0.0936956 0.162456 0.13043 0.194939 -0.0872178 -0.145426 0.288143 -0.188389 -0.0747592 0.175651 -0.073115 -0.164984 0.143374 -0.0255024 -0.245577 -0.190586 0.0653099 0.0226002 0.092256 0.0239116 -0.069123 0.075197 0.0222958 -0.200118 0.099732 -0.0384982 0.104788 0.0253768 -0.062934 0.258226 -0.0935035 -0.00423156 0.115693 0.0344832 -0.17708 -0.179921 0.137087 -0.0609858 -0.104182 -0.174599 0.037723 0.195152 -0.178067 0.132078 0.0649326 0.0465124 0.259783 0.0978121 -0.0143466 0.0711332 -0.0584407 -0.157269 0.171847 -0.24659 -0.13887 -0.23864 -0.133212 0.161135 0.0323463 0.253805 0.086743 -0.214238 0.240703 0.0666377 -0.139382 0.0457019 0.0763619 0.049472 -0.0579062 0.16253 0.0423512 -0.129923 0.00433135 -0.127387 -0.111144 0.242297 -0.066002 0.177151 0.269079 0.0773769 -0.178116 -0.202977 -0.243124 0.239985 0.222418 -0.0598736 0.21525 -0.252673 0.218722 -0.163127 0.16661 0.267371 0.172318 -0.244687 -0.221093 0.0810169 -0.185431 0.121482 -0.183784 -0.0233954 0.179553 0.104225 -0.221725 0.0835171 -0.0888392 -0.058481 -0.0394234 -0.0995864 -0.0308714 0.220131 0.00143908 -0.0969584 0.240726 0.201567 -0.294355 -0.219607 0.2238 0.113777 0.0239075 0.12626 -0.229322 0.224177 -0.22289 0.118522 -0.246407 -0.256512 -0.135582 -0.200143 0.181461 0.209445 -0.104081 0.0541863 -0.244796 0.127212 -0.239933 0.205453 0.00315661 -0.172583 0.183609 -0.202678 0.0426225 -0.217967 -0.0429096 0.0323161 -0.128137 0.0596924 -0.0679081 0.217081 -0.222687 -0.227329 -0.118849 -0.148454 -0.17756 0.16294 0.0153503 0.186364 -0.240001 -0.10416 -0.170399 0.253553 0.198033 -0.132423 0.0028442 -0.164656 -0.193759 -0.146351 0.223387 0.22402 -0.19844 -0.0989976 0.13553 -0.0544956 0.0499998 -0.178265 0.0960776 -0.0598734 0.0710187 0.156417 -0.123876 0.0203872 0.0229938 0.0208776 0.208216 0.187867 -0.130715 0.0933854 0.150718 -0.0716761 0.216617 -0.0298396 -0.178963 0.136513 -0.123426 -0.143421 -0.15281 -0.00143838 0.236026 0.0689464 0.0979761 0.261095 -0.297231 0.202864 -0.204776 -0.0490761 -0.0740281 0.137492 0.125676 -0.0966821 -0.123212 -0.265584 0.185408 0.0182539 -0.12946 0.203635 -0.00308143 0.170794 0.101635 -0.000636633 0.136763 0.214168 -0.0602285 0.137619 -0.16673 0.142544 -0.154281 -0.235326 0.0221727 0.123488 0.0956119 0.252058 -0.0832562 0.171101 0.112482 0.00636391 0.169002 0.126048 0.222204 0.072463 -0.241842 -0.242768 -0.193538 0.208792 -0.0146731 0.261005 -0.226605 0.0553403 -0.271061 0.0537989 -0.194508 -0.274871 0.067257 -0.284114 0.197287 -0.234128 0.150366 0.145513 -0.0917864 -0.0271646 0.179989 0.266912 0.20643 0.139983 -0.0645996 0.0677899 -0.00779973 0.143238 0.127773 -0.117005 0.142628 -0.139136 0.1748 -0.114792 -0.0142415 0.231766 -0.108987 -0.013483 0.222151 -0.118017 -0.0202655 -0.0968319 -0.117569 -0.0311813 -0.024445 0.228143 0.000765962 -0.156308 -0.166436 -0.273816 0.116695 -0.0437923 0.112943 0.00245248 -0.161472 0.0128097 0.0905974 -0.205921 -0.0329037 -0.0775755 0.0719471 0.042163 -0.132123 -0.0940807 -0.00297569 -0.10017 -0.0582124 -0.255722 -0.208187 0.0998644 0.16198 0.0555176 0.0576804 0.0250942 -0.20083 0.125804 0.200551 -0.192785 -0.15984 0.153989 0.0320958 0.241182 0.126118 0.0983026 -0.00776838 0.125927 0.185984 -0.24142 0.114261 -0.125914 0.185635 -0.0814664 0.13818 -0.278752 0.0759788 -0.0928629 0.0192829 0.150444 0.175012 -0.29759 -0.203102 -0.282228 -0.0672795 -0.193612 0.239995 -0.218592 -0.189459 -0.14173 0.00489629 0.0515375 -0.0659462 -0.101354 -0.0178099 -0.00332481 -0.15526 0.253707 -0.0958361 -0.0767169 0.223321 -0.201853 -0.214649 0.0745597 -0.154158 -0.0663702 -0.00244043 -0.224067 0.182342 -0.218405 0.236942 -0.0830292 0.144768 0.176993 -0.0791375 0.000131797 -0.0823181 0.23665 -0.235676 -0.0658031 -0.245354 0.160735 -0.0526306 0.186098 -0.0564243 -0.132082 -0.0790818 0.231718 -0.278203 0.124288 -0.181618 0.157289 -0.127543 0.0585634 -0.226029 -0.00449615 0.133625 -0.102566 0.10449 0.0376794 -0.220699 0.179552 -0.276661 -0.230264 0.135043 0.00828645 0.00597967 0.232114 -0.0515553 -0.221745 0.189346 0.163788 -0.165248 -0.0637252 0.114639 -0.235398 -0.00252041 -0.0359524 -0.021493 -0.231521 0.179446 -0.0752313 0.0450354 -0.207613 -0.21306 -0.172745 0.214966 0.277677 -0.187403 -0.265897 0.183182 -0.00784765 0.0754086 0.0829777 -0.243566 -0.00128195 0.258119 -0.170365 -0.209768 -0.0347936 0.0862332 0.228921 0.0459159 0.136289 0.252769 0.186288 0.148244 -0.249688 0.227912 0.0808897 -0.000670496 -0.242696 0.202272 0.00489386 -0.179736 -0.07691 -0.199585 -0.107035 0.10413 -0.20519 0.121764 -0.150679 -0.217276 -0.0192568 0.00802832 -0.268299 -0.0382873 -0.0445217 -0.13224 0.034617 0.0684707 0.0133831 0.24952 -0.0653425 -0.283924 -0.0168673 0.0530201 0.267133 -0.080494 -0.252185 -0.155327 0.0379323 0.0616958 0.117028 -0.0156084 0.243664 0.124204 0.13871 0.175924 0.167564 -0.133572 0.226182 0.143555 0.215474 0.0232604 -0.233353 0.196891 0.151111 -0.00877396 -0.1067 -0.0665559 0.0522782 0.253863 -0.189264 0.272666 -0.021476 -0.116476 -0.00140743 -0.109283 -0.153173 0.130016 0.180576 -0.245306 0.245324 0.0631402 -0.189687 -0.117285 0.0441041 0.274239 -0.176244 -0.13636 0.232354 -0.271928 0.0573435 -0.0127192 -0.095032 -0.0384243 -0.15436 -0.21345 -0.0886967 -0.217705 -0.262026 -0.269622 -0.211395 0.172892 -0.0344812 -0.1297 -0.146477 -0.263398 -0.215125 0.0952998 0.167106 0.104626 0.162374 0.00968381 -0.0377609 0.22694 0.123104 0.0269605 0.00736508 0.251007 -0.0535689 -0.203229 0.0270335 0.268696 0.234254 -0.166519 0.161193 -0.235292 -0.176419 0.237782 0.0731983 0.239088 -0.156583 0.183358 -0.219982 -0.158917 -0.004179 0.00357433 0.055673 0.233762 0.261628 -0.0950231 -0.0302529 -0.272554 -0.0773008 0.160359 0.00370395 -0.188584 
-0.0795968 0.160348 0.195474 0.228319 -0.0722147 -0.119677 -0.0715181 -0.109201 0.195771 -0.0773751 0.0947716 -0.220959 0.250727 0.201811 0.252539 -0.205981 -0.0595386 -0.0244147 -0.124918 -0.25136 -0.0372067 -0.239386 -0.194256 -0.132732 -0.0899211 0.109552 -0.152237 0.0933418 -0.2778 0.179293 -0.165815 0.145319 0.168318 -0.259035 -0.0117994 -0.00870191 -0.0770244 -0.183102 -0.18838 0.21316 -0.154589 0.118574 -0.14216 -0.25272 0.206652 0.19233 -0.184473 -0.20809 -0.245152 0.0321627 0.224485 -0.243763 -0.23805 0.167588 0.189668 0.03667 0.177323 -0.165115 0.0518825 0.0426046 0.236389 0.267705 -0.194657 -0.211668 0.125349 -0.133066 -0.0160178 0.108294 0.24411 0.07798 0.0458058 0.197322 0.0950786 -0.208621 0.161941 -0.0945802 0.146131 -0.254583 0.243652 -0.00842146 -0.281684 0.198608 -0.137507 0.131546 -0.13068 0.066935 -0.0811273 -0.205538 -0.248348 -0.232472 0.249881 0.122219 0.0263978 0.0206888 -0.271104 0.00163004 -0.180738 -0.028632 0.267622 0.181949 0.0440512 -0.208836 -0.110776 0.271724 0.0295501 0.28648 0.0871359 0.0674294 -0.0331958 0.0866243 0.247094 0.109975 -0.0323598 0.222153 0.0146213 -0.0800549 -0.0164351 0.0918385 0.211828 0.249378 0.0505568 0.218358 -0.0982537 0.148403 -0.217418 0.228493 -0.0605024 -0.18087 -0.187984 -0.0634652 -0.0148851 0.0333524 -0.260561 0.0400823 0.0332105 0.17687 0.0256045 0.230089 -0.196973 -0.0578565 -0.104077 0.119499 -0.152332 0.261792 0.121705 -0.0952864 0.00709036 0.0271744 -0.287875 -0.111323 0.0337006 -0.0344414 -0.233857 0.0737838 -0.166186 -0.296052 -0.0356367 -0.00966518 0.195094 0.16481 -0.0383952 -0.138788 -0.248901 -0.17166 0.0129839 0.217432 -0.175793 0.276441 0.240678 0.20616 0.0462316 0.117562 0.130658 -0.0237369 -0.0832454 -0.260572 -0.0505031 -0.287889 0.063116 -0.227613 -0.125106 0.249307 -0.0163269 -0.115611 -0.222781 -0.233071 -0.291063 -0.025269 0.170108 0.14074 0.219211 0.252378 -0.254776 0.228948 0.20504 0.129157 0.154772 0.00578876 0.0125572 0.267171 0.0269831 -0.149195 0.257302 0.0407521 0.153212 0.208374 -0.261132 -0.00830843 -0.0686728 0.0563388 0.0307838 -0.102157 0.0109853 -0.107415 -0.23917 -0.179379 0.184641 -0.24436 0.145608 0.249317 0.0461433 -0.0235988 0.220013 0.188374 -0.10837 -0.233056 0.089873 0.17334 0.0733612 -0.119983 -0.0997626 0.0231814 -0.13252 0.148253 -0.241374 0.255055 0.225306 0.140282 -0.07282 -0.143366 0.200826 0.127358 -0.119401 -0.243543 0.0425596 0.23401 -0.292952 -0.0204528 0.104012 0.0798527 -0.19133 0.018883 -0.176577 -0.207041 0.0376029 0.0763208 0.102225 -0.107631 0.257973 -0.00468427 -0.068954 -0.131698 0.23806 -0.158338 0.0233271 0.095818 0.160976 0.0553416 0.266055 -0.00289737 0.023001 -0.0837592 -0.0657484 -0.261181 0.191147 -0.184984 0.16242 -0.265391 0.212448 0.270095 -0.254322 0.150522 0.0849798 0.192196 -0.0428928 -0.231499 0.102779 -0.111565 0.113909 -0.243536 0.0308912 0.130999 -0.266018 -0.187168 0.267002 -0.160313 -0.114393 -0.12745 0.268681 -0.223348 0.13912 -0.0868914 0.0148804 -0.103795 0.19259 -0.210569 0.103511 -0.0861724 0.267323 0.266114 -0.232745 -0.210774 -0.26228 0.230088 0.0378747 -0.224562 -0.282954 -0.0138259 0.167786 0.118988 -0.0207657 -0.132835 0.25965 -0.11963 0.267722 0.214775 0.17719 0.262194 -0.191497 0.0669536 0.154624 -0.172895 -0.0176387 0.10108 0.0562788 -0.243179 0.0770569 0.192654 0.130149 0.171467 0.269862 0.101974 0.248658 -0.275574 -0.242598 -0.162883 0.0165716 -0.228974 -0.0658706 -0.0358621 -0.0368242 -0.00133943 0.184592 -0.178028 -0.273619 -0.235108 -0.211963 0.142027 -0.277887 0.0377832 0.137018 0.23407 0.143319 -0.0637467 -0.050873 0.0173783 0.20096 -0.108487 0.205985 0.0421824 0.19911 0.0219187 0.0681038 0.0627934 -0.00135394 -0.00759703 0.222562 -0.0434329 0.164079 0.0021244 -0.189976 0.132801 -0.123141 0.209378 0.0274948 0.160991 0.178354 0.145071 -0.178157 -0.168546 0.034049 0.05561 0.139409 0.0498648 0.141751 0.197281 0.147876 0.126524 0.274933 0.0650198 -0.0335767 -0.155757 -0.0632799 0.0546344 0.130939 0.035306 -0.13385 0.250488 0.21568 -0.00255753 0.0824869 0.274587 0.092663 0.120871 0.197677 -0.0228607 -0.225181 0.253747 -0.264526 0.242105 -0.195683 0.183426 -0.0336882 0.165937 0.124304 -0.0674472 0.246361 -0.0781788 -0.0943774 0.24226 0.0584122 -0.0904053 -0.155437 -0.0857972 0.113392 0.0752085 -0.0372114 -0.259015 -0.0991944 0.201969 0.0630059 -0.192197 0.247561 -0.00917148 0.0906827 0.0357329 0.0360375 -0.063208 -0.0354233 0.0254443 0.123324 0.0104357 0.0479177 -0.0176771 0.0181343 -0.246341 0.236578 -0.0396308 0.150438 0.238054 0.238445 0.0857998 0.268242 0.202658 -0.0179144 -0.197665 -0.234399 0.19962 -0.0967502 0.0661627 -0.0179192 0.146412 -0.170325 -0.262173 -0.144184 0.25259 -0.198645 -0.244719 -0.266197 0.021207 -0.0539809 -0.184397 0.262539 0.182682 0.113991 -0.181459 -0.141025 0.010723 0.0469575 -0.0179593 0.224284 -0.101883 0.0557596 0.193571 0.208897 0.246189 -0.11296 0.228654 0.0386547 0.255594 -0.199412 0.1508 -0.144362 0.0678332 0.0896783 0.058759 -0.211318 0.128093 -0.11198 0.166859 0.195627 -0.263011 0.237679 0.256923 -0.139624 -0.121388 0.147766 0.25351 -0.238131 0.164729 -0.187793 -0.196986 0.240345 -0.158625 0.157753 0.119742 0.210997 -0.26936 0.20038 0.0795283 0.222367 0.180534 -0.144409 0.0519853 0.162604 0.209807 -0.141109 -0.0846188 0.0891367 -0.27989 -0.0633539 -0.0379432 -0.101506 0.191171 -0.1674 0.0838089 0.0169161 0.227292 0.0834925 0.0470704 0.00654175 -0.138164 -0.0926782 -0.0294046 -0.204327 0.172245 0.135352 -0.249183 -0.198729 0.153273 -0.041847 0.212034 0.0808019 0.0508334 -0.17868 0.273632 0.229694 -0.0678944 -0.0490867 0.0501741 -0.231271 -0.00244759 -0.142086 0.218625 0.0347825 0.00622847 0.18303 0.233861 -0.0666085 -0.195591 0.250973 0.236918 -0.15931 0.145516 -0.0261426 -0.0405405 0.0609671 0.131616 -0.189976 0.146793 0.111666 0.155962 0.220209 0.223041 0.0587955 0.217767 0.147566 0.269686 0.124282 -0.281944 0.209483 -0.109875 0.095583 0.222246 0.157328 0.155448 0.0937285 -0.169412 -0.130568 -0.214456 0.118339 0.0259999 -0.0237501 -0.158421 -0.207886 0.182823 0.135111 -0.115502 0.256783 -0.108916 0.208187 -0.101253 -0.185295 -0.0446897 0.0604179 -0.264868 -0.0253264 -0.073593 0.213257 0.0970079 -0.179662 0.0799505 -0.0260171 -0.215269 0.216382 0.0986967 -0.0339985 -0.162562 -0.0781385 -0.267242 0.277936 -0.08825 0.27507 -0.0715555 0.23223 -0.194426 -0.0644893 -0.140657 0.123578 0.214501 0.148809 0.104243 -0.231201 -0.278298 -0.0710845 0.0733763 0.214087 0.0391654 -0.259549 -0.292172 0.0615878 0.075988 0.248986 0.171224 0.0432346 0.166419 0.163661 -0.232017 -0.0627899 0.0312433 0.0223882 -0.133267 -0.116889 0.00769421 0.210112 -0.0127154 -0.206472 -0.0742961 -0.197381 -0.0603609 0.271454 -0.0902165 0.204842 -0.13456 -0.095072 -0.224686 0.0701984 0.136112 0.225934 0.252746 -0.0153843 0.214639 -0.224304 0.227826 0.188482 -0.0167322 0.0584697 -0.0839384 0.143467 -0.0962241 -0.0958173 -0.235251 -0.24444 0.0774335 0.245315 0.142019 -0.0513954 0.225996 -0.166102 0.239608 0.267477 0.100335 0.221524 -0.174013 0.268996 0.107848 0.217797 -0.17529 -0.0362084 -0.0947886 0.0939447 0.0629358 0.117099 -0.0803891 0.13961 0.204888 0.0303289 -0.0570428 -0.274051 0.162022 0.147161 0.0251266 0.207212 -0.0285002 0.225802 -0.129546 -0.226686 0.23717 0.283692 0.199565 -0.119456 0.0983497 0.0649543 -0.0596039 0.234959 -0.0789194 0.00378528 -0.0190428 0.0139683 0.0703821 -0.223961 -0.259742 0.102783 -0.10107 -0.236131 0.0728525 0.276563 0.126142 0.22747 0.210267 -0.136813 -0.239889 0.150836 0.123134 -0.0358465 0.0517949 0.230273 -0.13425 0.0420412 0.118163 0.000750347 -0.269458 -0.273508 0.0174096 -0.216147 -0.246715 0.220327 -0.211695 0.10809 0.135208 0.162734 0.0333187 0.224603 -0.118437 
-0.199358 0.105122 0.150302 -0.180602 0.270617 -0.244159 0.138869 -0.246713 0.0103875 0.13541 -0.259101 -0.2256 0.10647 -0.224495 -0.000795692 -0.244047 0.0910513 0.0148688 0.0481842 -0.194984 -0.201372 -0.268625 0.270164 -0.0659547 -0.137018 0.112079 0.231901 -0.260502 0.247966 -0.14028 0.217548 -0.240052 -0.101478 -0.278785 0.234436 0.000156039 0.0666668 -0.216379 0.0399653 0.11411 -0.108129 0.264307 0.198461 0.160343 0.218028 0.198171 0.195334 -0.189808 -0.0657318 0.111597 0.122502 -0.0810471 0.00482914 -0.0995771 0.128019 0.0306212 -0.236253 0.124414 0.106502 0.11042 0.0614868 -0.201889 0.212827 0.155592 0.0588096 0.130379 0.101864 0.0981742 0.253517 0.227867 0.129914 -0.260488 0.176301 -0.133194 -0.0966797 -0.215194 -0.188412 -0.106414 0.082582 -0.228136 -0.262504 -0.0640052 0.189664 0.26898 0.2123 -0.158536 -0.258934 0.14517 -0.0203694 0.266293 -0.253891 0.0260647 -0.108516 -0.23223 0.149645 0.0465723 -0.161013 -0.155567 -0.00338017 -0.248827 -0.0200542 0.169423 0.119246 -0.0235623 -0.186339 0.0566022 -0.148237 0.250484 0.242696 -0.187141 -0.130138 -0.0217252 0.168528 -0.212094 -0.0939888 -0.191949 0.189565 -0.160004 -0.0203957 0.235305 0.00944316 0.20752 0.00395728 -0.0204905 -0.0577572 0.27749 0.225268 0.172291 0.1589 0.238945 -0.234683 0.0455097 0.288273 0.265459 -0.0169266 -0.0851757 0.137963 0.204829 0.0496051 0.24219 -0.249496 -0.264154 -0.224557 0.132076 0.266423 -0.122667 -0.103023 -0.0853175 0.259306 -0.203675 0.112095 0.302471 -0.012442 0.256414 -0.175043 0.135122 0.0912084 -0.262535 0.0497166 -0.0121064 -0.00748349 -0.187105 0.147351 -0.0668558 0.0118606 0.251807 -0.249739 -0.154516 -0.0862927 0.0997615 -0.137128 -0.243609 -0.127114 0.180785 0.11674 -0.138209 0.204125 0.297385 0.281252 0.021506 0.228983 -0.0966033 -0.238983 -0.308802 -0.208143 0.169171 -0.226606 -0.186462 0.0224528 -0.0379325 -0.224966 -0.195689 -0.0132518 -0.111061 -0.0311347 0.113242 -0.0851541 -0.280484 -0.25332 -0.161275 0.134198 -0.177787 0.134568 -0.0150223 0.148441 0.284665 -0.262356 0.171352 -0.228817 0.223702 -0.101994 -0.190788 -0.110075 0.0797007 0.00312993 0.266904 0.171376 0.167586 0.0969923 0.271152 -0.189265 0.237502 -0.215157 0.0342615 0.194879 0.0801586 -0.133336 0.132578 0.224831 0.222838 -0.0778248 0.108833 0.207753 -0.250783 0.152592 0.00875949 0.148707 0.0477163 0.157779 0.192588 0.0704842 -0.190657 -0.227245 -0.162966 0.00439837 -0.13237 0.190283 0.0158591 0.130431 -0.0357918 -0.00158372 0.0388933 0.112629 0.155422 0.257451 0.119609 0.0261725 -0.212748 -0.0997652 0.0751572 0.0352482 0.0213125 0.0295518 -0.289181 0.20528 -0.250026 0.070626 -0.0718168 0.11956 0.19926 0.00864296 0.0691525 -0.0551565 0.16883 0.250104 -0.208486 0.244911 -0.00115625 0.242685 0.162749 0.281872 -0.129675 0.175991 -0.0376477 0.0116852 0.115453 0.239249 0.227543 -0.261613 -0.259243 -0.0926631 0.157076 0.100747 0.147653 -0.0842943 0.137074 0.211133 0.0444885 -0.125574 -0.0639196 -0.0917946 -0.175685 0.0736864 0.262886 -0.281956 0.142353 0.0579126 0.0456635 0.18857 0.174833 0.17913 0.202189 -0.267973 -0.179601 -0.211175 -0.0790226 -0.237985 0.142625 -0.171049 0.237724 0.181383 0.224976 -0.0842447 0.184751 -0.176011 -0.0882806 0.241976 -0.136018 -0.115542 -0.162391 0.152684 -0.191108 -0.213452 -0.186005 0.232571 0.168289 0.0416982 0.12314 0.123687 -0.172243 -0.015102 -0.015477 -0.0818322 0.252837 -0.0715065 0.253395 0.233695 -0.136176 -0.120908 0.032229 0.21228 0.253298 -0.203424 -0.266951 0.070163 0.0922113 -0.165843 -0.219366 0.225473 -0.00254449 0.171423 -0.0244007 -0.0453914 0.254294 -0.127851 -0.281606 0.223515 -0.207542 -0.199459 -0.232738 0.229197 0.247177 -0.225427 0.234904 0.165812 0.131548 0.0201083 -0.237542 -0.142519 -0.098582 -0.106348 -0.0695295 -0.0123968 0.22388 -0.0808042 -0.00439237 0.194145 -0.144503 0.12286 0.127979 -0.139613 -0.0926095 0.104369 -0.185031 -0.150982 0.151718 -0.148315 0.107446 -0.0897887 0.0128987 0.00934512 -0.106439 0.252472 -0.223759 -0.172313 0.251848 0.285188 -0.0781575 -0.075312 -0.182856 -0.00310883 0.00351454 0.0326893 0.0659306 -0.174417 -0.052336 0.179449 -0.239725 0.136878 -0.275074 0.0475048 -0.278072 0.0324612 -0.266502 0.079145 0.226148 -0.21031 0.167699 -0.224173 0.270096 0.0436207 0.0503702 -0.143312 0.238783 0.0761985 0.301017 0.290267 0.0414435 0.207592 -0.136543 0.273075 -0.229476 -0.0394159 -0.275904 -0.0019296 0.0735432 0.121386 0.119028 0.077828 0.251718 -0.220997 0.0383115 -0.254613 -0.0685115 -0.222586 0.301231 -0.198271 0.298297 0.219048 0.302167 -0.11645 -0.0151317 0.084122 -0.106885 -0.229139 0.266703 -0.0979971 -0.172855 0.0274822 0.0172148 -0.122512 -0.158022 -0.180556 -0.0792698 -0.224548 0.24286 0.163513 -0.238295 -0.196123 -0.27489 -0.228614 0.260058 -0.0523539 0.0445936 0.258539 -0.265149 0.11012 -0.238652 -0.145796 -0.191557 -0.101505 -0.0127726 0.146924 0.0342794 -0.0807761 0.0715463 0.127913 -0.222448 -0.182932 0.230643 -0.174548 -0.0798698 -0.151825 -0.183752 -0.147852 -0.05322 0.165775 0.165547 -0.0461731 -0.176638 -0.0216749 0.0890173 0.243937 -0.267757 -0.183262 0.151661 0.038671 0.0782709 -0.0111335 0.212058 0.0204209 -0.199566 0.15016 0.22353 0.0651549 -0.136572 0.0934598 0.18134 0.263661 -0.0806263 0.0627695 0.144564 0.260998 0.204076 0.165326 0.0104122 -0.262462 0.0475619 0.230131 0.0973123 -0.231519 -0.25751 0.204609 0.00443948 -0.00790307 0.297781 0.00453234 -0.105438 -0.0801587 -0.225548 0.269297 -0.135039 -0.173755 -0.160601 -0.0566034 -0.0455679 -0.00397871 0.0800289 -0.140135 -0.0434549 -0.0593107 0.147627 0.00459798 -0.161814 -0.0394905 -0.262693 0.0141241 -0.0186915 0.275053 -0.112572 -0.236126 -0.206583 0.296685 -0.245685 0.208033 0.0220261 -0.24071 -0.140655 0.169697 -0.0896243 -0.0677836 -0.180265 -0.224369 0.24475 0.231439 0.0487483 -0.166534 -0.268434 0.114988 -0.199202 -0.266606 -0.191541 0.222211 -0.183537 -0.122401 -0.27021 0.100947 0.158515 0.161157 0.241105 -0.126805 -0.042116 0.25 -0.205874 -0.00146433 -0.0357556 0.0661605 0.207147 0.0933519 0.290703 -0.259027 0.0397186 -0.184779 -0.212634 0.169173 -0.0459371 0.00133672 -0.177454 -0.0786687 0.281471 -0.052871 -0.265425 -0.0560512 -0.0923524 -0.117276 0.0734422 0.10513 -0.162033 -0.14755 0.122291 0.227941 0.0445139 0.280451 -0.146058 -0.254349 -0.226817 -0.213828 0.154188 -0.230748 0.0028568 -0.148307 0.282848 -0.113185 -0.132115 0.138427 -0.193712 -0.271715 0.186811 0.170703 -0.0148563 0.160557 -0.201646 -0.055776 0.0183307 0.0678587 0.254338 -0.269938 -0.0439649 -0.273484 -0.0934409 -0.160677 -0.0230089 0.119864 0.213804 -0.0622705 -0.144592 -0.0926714 0.143098 0.277257 -0.267702 0.19421 0.283305 0.280256 0.0989182 0.219609 -0.140712 0.00540028 -0.175381 -0.172071 0.125959 -0.189189 -0.050264 0.231008 0.262072 0.0443996 -0.139702 0.129322 -0.0611147 0.180878 0.168773 0.192804 -0.0870156 0.0924298 0.181934 -0.00824243 -0.268926 0.0553361 0.0496228 -0.0633922 0.104676 0.216269 -0.100489 -0.194551 0.198693 -0.113896 0.243191 0.221417 -0.23165 -0.208308 0.194206 0.253752 -0.0808244 -0.122914 -0.21503 -0.0384749 -0.117933 0.165137 0.247893 0.0982481 0.245166 -0.270036 -0.280221 -0.092732 0.248687 -0.0145839 -0.0203008 0.203284 0.0802939 0.247893 -0.238399 -0.248635 0.0483688 -0.0129681 -0.145605 -0.249639 -0.251204 -0.225314 0.280994 -0.0721705 0.129111 -0.183661 0.187235 -0.0223322 0.165911 -0.136803 -0.153682 -0.229631 0.265721 0.232711 0.170415 0.169747 -0.00268195 -0.175619 0.255883 0.029984 -0.0348191 -0.262426 -0.115679 0.198532 -0.0619768 0.0469309 0.093812 0.180334 -0.10738 0.0970648 0.12356 -0.131532 -0.0811388 -0.22507 0.069539 -0.0678773 0.243641 -0.0153361 0.0254888 -0.17234 -0.267656 -0.171315 0.124829 -0.120547 0.267141 -0.18428 -0.259911 -0.155418 0.0307456 
